{"learner":{"attributes":{"best_iteration":"49","best_ntree_limit":"50","best_score":"1.159786"},"feature_names":["tlx_score","E4_BVP","E4_GSR","LooxidLink_EEG_A3","LooxidLink_EEG_A4","LooxidLink_EEG_FP1","LooxidLink_EEG_FP2","LooxidLink_EEG_A7","LooxidLink_EEG_A8","Muse_EEG_TP9","Muse_EEG_AF7","Muse_EEG_AF8","Muse_EEG_TP10","Muse_PPG_0","Muse_PPG_1","Muse_PPG_2","Myo_GYR_X","Myo_GYR_Y","Myo_GYR_Z","Myo_EMG_0","Myo_EMG_1","Myo_EMG_2","Myo_EMG_3","Myo_EMG_4","Myo_EMG_5","Myo_EMG_6","Myo_EMG_7","PICARD_fnirs_0","PICARD_fnirs_1","Polar_bpm","Polar_hrv","ViveEye_eyeOpenness_L","ViveEye_pupilDiameter_L","ViveEye_pupilPos_L_X","ViveEye_pupilPos_L_Y","ViveEye_gazeOrigin_L_X","ViveEye_gazeOrigin_L_Y","ViveEye_gazeOrigin_L_Z","ViveEye_gazeDirection_L_X","ViveEye_gazeDirection_L_Y","ViveEye_gazeDirection_L_Z","ViveEye_eyeOpenness_R","ViveEye_pupilDiameter_R","ViveEye_pupilPos_R_X","ViveEye_pupilPos_R_Y","ViveEye_gazeOrigin_R_X","ViveEye_gazeOrigin_R_Y","ViveEye_gazeOrigin_R_Z","ViveEye_gazeDirection_R_X","ViveEye_gazeDirection_R_Y","ViveEye_gazeDirection_R_Z","Zephyr_HR","Zephyr_HRV"],"feature_types":["int","float","float","float","float","float","float","float","float","float","float","float","float","float","float","float","float","float","float","float","float","float","float","float","float","float","float","float","float","float","float","float","float","float","float","float","float","float","float","float","float","float","float","float","float","float","float","float","float","float","float","float","float"],"gradient_booster":{"model":{"gbtree_model_param":{"num_trees":"300","size_leaf_vector":"0"},"tree_info":[0,1,2,3,4,5,0,1,2,3,4,5,0,1,2,3,4,5,0,1,2,3,4,5,0,1,2,3,4,5,0,1,2,3,4,5,0,1,2,3,4,5,0,1,2,3,4,5,0,1,2,3,4,5,0,1,2,3,4,5,0,1,2,3,4,5,0,1,2,3,4,5,0,1,2,3,4,5,0,1,2,3,4,5,0,1,2,3,4,5,0,1,2,3,4,5,0,1,2,3,4,5,0,1,2,3,4,5,0,1,2,3,4,5,0,1,2,3,4,5,0,1,2,3,4,5,0,1,2,3,4,5,0,1,2,3,4,5,0,1,2,3,4,5,0,1,2,3,4,5,0,1,2,3,4,5,0,1,2,3,4,5,0,1,2,3,4,5,0,1,2,3,4,5,0,1,2,3,4,5,0,1,2,3,4,5,0,1,2,3,4,5,0,1,2,3,4,5,0,1,2,3,4,5,0,1,2,3,4,5,0,1,2,3,4,5,0,1,2,3,4,5,0,1,2,3,4,5,0,1,2,3,4,5,0,1,2,3,4,5,0,1,2,3,4,5,0,1,2,3,4,5,0,1,2,3,4,5,0,1,2,3,4,5,0,1,2,3,4,5,0,1,2,3,4,5,0,1,2,3,4,5,0,1,2,3,4,5,0,1,2,3,4,5,0,1,2,3,4,5],"trees":[{"base_weights":[3.4938404E-1,2.635838E0,-1.9512196E-1,9.9999994E-1,-3.888889E-1,-2.9770994E-1,2.1074378E0,6.666666E-1,-5.8064514E-1,-4.520548E-1,1.9811319E0],"categories":[],"categories_nodes":[],"categories_segments":[],"categories_sizes":[],"default_left":[true,false,true,true,true,false,false,true,false,false,false],"id":0,"left_children":[1,-1,3,5,7,-1,-1,9,-1,-1,-1],"loss_changes":[1.2455909E2,0E0,1.9766937E1,1.8500408E1,1.534767E1,0E0,0E0,1.9437407E1,0E0,0E0,0E0],"parents":[2147483647,0,0,2,2,3,3,4,4,7,7],"right_children":[2,-1,4,6,8,-1,-1,10,-1,-1,-1],"split_conditions":[7.21135E-2,1.8450867E-2,8.8973427E-1,7.5906765E-1,7.5193E-2,-2.0839698E-3,1.4752066E-2,2.4E1,-4.064516E-3,-3.1643836E-3,1.3867924E-2],"split_indices":[7,0,2,2,7,0,0,0,0,0,0],"split_type":[0,0,0,0,0,0,0,0,0,0,0],"sum_hessian":[9.722223E1,1.7222223E1,8E1,1E1,7E1,5.277778E0,4.7222223E0,1E1,6.0000004E1,6.1111116E0,3.888889E0],"tree_param":{"num_deleted":"0","num_feature":"53","num_nodes":"11","size_leaf_vector":"0"}},{"base_weights":[2.2407304E-1,-3.523686E-1,2.696629E0,1.658385E0,-5.720339E-1,6.263736E-1,1.9811319E0,-1.6483517E-1,-5.8412933E-1],"categories":[],"categories_nodes":[],"categories_segments":[],"categories_sizes":[],"default_left":[true,true,false,true,true,false,false,false,false],"id":1,"left_children":[1,3,-1,5,7,-1,-1,-1,-1],"loss_changes":[1.4925897E2,3.9711117E1,0E0,4.9734497E-1,1.9488335E-1,0E0,0E0,0E0,0E0],"parents":[2147483647,0,0,1,1,3,3,4,4],"right_children":[2,4,-1,6,8,-1,-1,-1,-1],"split_conditions":[7.44385E-2,7.5906765E-1,1.8876404E-2,-1.693148E1,7.7187324E-1,4.3846155E-3,1.3867924E-2,-1.1538463E-3,-4.0889056E-3],"split_indices":[5,2,0,1,2,0,0,0,0],"split_type":[0,0,0,0,0,0,0,0,0],"sum_hessian":[1.0138889E2,8.3611115E1,1.7777779E1,6.9444447E0,7.666667E1,3.0555558E0,3.888889E0,3.0555558E0,7.3611115E1],"tree_param":{"num_deleted":"0","num_feature":"53","num_nodes":"9","size_leaf_vector":"0"}},{"base_weights":[-7.666101E-2,1.2395209E0,-5.833333E-1,-4.453125E-1,2.6156583E0,-1.6483517E-1,-4.9253732E-1],"categories":[],"categories_nodes":[],"categories_segments":[],"categories_sizes":[],"default_left":[true,true,false,true,false,true,true],"id":2,"left_children":[1,3,-1,-1,-1,-1,-1],"loss_changes":[6.6688515E1,6.6862885E1,0E0,2.6005507E-2,0E0,0E0,0E0],"parents":[2147483647,0,0,1,1,3,3],"right_children":[2,4,-1,-1,-1,-1,-1],"split_conditions":[1.0972345E0,8.871732E-1,-4.0833335E-3,-3.1171876E-3,1.8309608E-2,-1.1538463E-3,-3.4477613E-3],"split_indices":[2,2,0,1,0,2147483647,2147483647],"split_type":[0,0,0,0,0,0,0],"sum_hessian":[9.5833336E1,2.5833334E1,7E1,1.2222223E1,1.3611112E1,3.0555558E0,9.166667E0],"tree_param":{"num_deleted":"2","num_feature":"53","num_nodes":"7","size_leaf_vector":"0"}},{"base_weights":[1.6657149E-3,-5.620053E-1,2.6635513E0,3.2967016E-2,-5.8521557E-1],"categories":[],"categories_nodes":[],"categories_segments":[],"categories_sizes":[],"default_left":[true,true,false,false,false],"id":3,"left_children":[1,3,-1,-1,-1],"loss_changes":[1.5311998E2,1.2016525E0,0E0,0E0,0E0],"parents":[2147483647,0,0,1,1],"right_children":[2,4,-1,-1,-1],"split_conditions":[4.5827384E0,-1.4107256E2,1.864486E-2,2.3076912E-4,-4.096509E-3],"split_indices":[2,1,0,0,0],"split_type":[0,0,0,0,0],"sum_hessian":[9.805556E1,8.222223E1,1.5833334E1,3.0555558E0,7.916667E1],"tree_param":{"num_deleted":"0","num_feature":"53","num_nodes":"5","size_leaf_vector":"0"}},{"base_weights":[1.15515254E-1,-5.82015E-1,1.5024958E0,2.7165353E0,-5.15625E-1],"categories":[],"categories_nodes":[],"categories_segments":[],"categories_sizes":[],"default_left":[true,false,true,false,false],"id":4,"left_children":[1,-1,3,-1,-1],"loss_changes":[9.66676E1,0E0,8.460683E1,0E0,0E0],"parents":[2147483647,0,0,2,2],"right_children":[2,-1,4,-1,-1],"split_conditions":[2.096254E0,-4.074105E-3,4.6077094E0,1.9015748E-2,-3.609375E-3],"split_indices":[2,0,2,0,0],"split_type":[0,0,0,0,0],"sum_hessian":[9.6111115E1,6.472223E1,3.1388891E1,1.9166668E1,1.2222223E1],"tree_param":{"num_deleted":"0","num_feature":"53","num_nodes":"5","size_leaf_vector":"0"}},{"base_weights":[-5.880067E-1],"categories":[],"categories_nodes":[],"categories_segments":[],"categories_sizes":[],"default_left":[false],"id":5,"left_children":[-1],"loss_changes":[0E0],"parents":[2147483647],"right_children":[-1],"split_conditions":[-4.1160467E-3],"split_indices":[0],"split_type":[0],"sum_hessian":[9.805556E1],"tree_param":{"num_deleted":"0","num_feature":"53","num_nodes":"1","size_leaf_vector":"0"}},{"base_weights":[2.9028875E-1,2.5380657E0,-1.5171841E-1,1.0731812E0,-4.193923E-1,-2.4188957E-1,2.105145E0,8.2613933E-1,-5.8136606E-1,3.343875E-2,-3.9604282E-1,-3.9564186E-1,1.8554386E0],"categories":[],"categories_nodes":[],"categories_segments":[],"categories_sizes":[],"default_left":[true,false,true,true,true,true,false,true,false,false,false,false,false],"id":6,"left_children":[1,-1,3,5,7,9,-1,11,-1,-1,-1,-1,-1],"loss_changes":[1.0252211E2,0E0,2.9579891E1,2.3069939E1,1.5732831E1,4.0585417E-1,0E0,1.310391E1,0E0,0E0,0E0,0E0,0E0],"parents":[2147483647,0,0,2,2,3,3,4,4,5,5,7,7],"right_children":[2,-1,4,6,8,10,-1,12,-1,-1,-1,-1,-1],"split_conditions":[7.20335E-2,1.776646E-2,8.871732E-1,7.5906765E-1,7.4559E-2,-4.5E0,1.4736015E-2,2.4E1,-4.0695625E-3,2.3407125E-4,-2.7722998E-3,-2.769493E-3,1.2988071E-2],"split_indices":[7,0,2,2,7,19,0,0,0,0,0,0,0],"split_type":[0,0,0,0,0,0,0,0,0,0,0,0,0],"sum_hessian":[1.0041423E2,1.49423485E1,8.5471886E1,1.424893E1,7.122295E1,6.938342E0,7.3105874E0,7.2524905E0,6.3970463E1,3.0525103E0,3.8858318E0,3.8791585E0,3.373332E0],"tree_param":{"num_deleted":"0","num_feature":"53","num_nodes":"13","size_leaf_vector":"0"}},{"base_weights":[1.650932E-1,-4.0368906E-1,2.6321623E0,1.3386521E0,-5.5819565E-1,-5.834122E-1,3.3719517E-2],"categories":[],"categories_nodes":[],"categories_segments":[],"categories_sizes":[],"default_left":[true,true,false,false,true,false,false],"id":7,"left_children":[1,3,-1,-1,5,-1,-1],"loss_changes":[1.4185654E2,2.374577E1,0E0,0E0,1.1936512E0,0E0,0E0],"parents":[2147483647,0,0,1,1,4,4],"right_children":[2,4,-1,-1,6,-1,-1],"split_conditions":[7.4511E-2,7.584274E-1,1.8425137E-2,9.370565E-3,9.1563E-2,-4.0838853E-3,2.3603663E-4],"split_indices":[5,2,0,0,7,0,0],"split_type":[0,0,0,0,0,0,0],"sum_hessian":[9.757873E1,8.06562E1,1.6922531E1,5.3212605E0,7.533494E1,7.228424E1,3.0506983E0],"tree_param":{"num_deleted":"0","num_feature":"53","num_nodes":"7","size_leaf_vector":"0"}},{"base_weights":[-7.368482E-2,-5.823118E-1,1.0502573E0,2.5859852E0,-5.3008205E-1],"categories":[],"categories_nodes":[],"categories_segments":[],"categories_sizes":[],"default_left":[true,false,true,false,false],"id":8,"left_children":[1,-1,3,-1,-1],"loss_changes":[5.7925755E1,0E0,7.947131E1,0E0,0E0],"parents":[2147483647,0,0,2,2],"right_children":[2,-1,4,-1,-1],"split_conditions":[2.5859501E-2,-4.076183E-3,9.0629E-2,1.8101897E-2,-3.7105745E-3],"split_indices":[3,0,7,0,0],"split_type":[0,0,0,0,0],"sum_hessian":[9.718811E1,6.7572685E1,2.9615429E1,1.4374252E1,1.5241177E1],"tree_param":{"num_deleted":"0","num_feature":"53","num_nodes":"5","size_leaf_vector":"0"}},{"base_weights":[-5.718745E-2,-5.628175E-1,2.5908356E0,3.39245E-2,-5.85292E-1],"categories":[],"categories_nodes":[],"categories_segments":[],"categories_sizes":[],"default_left":[true,true,false,false,false],"id":9,"left_children":[1,3,-1,-1,-1],"loss_changes":[1.390813E2,1.2069817E0,0E0,0E0,0E0],"parents":[2147483647,0,0,1,1],"right_children":[2,4,-1,-1,-1],"split_conditions":[4.5782566E0,4.68815E-2,1.813585E-2,2.3747151E-4,-4.097044E-3],"split_indices":[2,5,0,0,0],"split_type":[0,0,0,0,0],"sum_hessian":[9.969761E1,8.503535E1,1.4662266E1,3.0493739E0,8.198597E1],"tree_param":{"num_deleted":"0","num_feature":"53","num_nodes":"5","size_leaf_vector":"0"}},{"base_weights":[5.2304354E-2,-5.825925E-1,1.3009887E0,-5.288698E-1,2.661368E0],"categories":[],"categories_nodes":[],"categories_segments":[],"categories_sizes":[],"default_left":[true,false,true,false,false],"id":10,"left_children":[1,-1,3,-1,-1],"loss_changes":[8.4394585E1,0E0,9.207186E1,0E0,0E0],"parents":[2147483647,0,0,2,2],"right_children":[2,-1,4,-1,-1],"split_conditions":[1.4761E4,-4.0781475E-3,7.089E-3,-3.7020887E-3,1.8629575E-2],"split_indices":[28,0,3,0,0],"split_type":[0,0,0,0,0],"sum_hessian":[1.0254111E2,6.868494E1,3.3856167E1,1.4958211E1,1.8897957E1],"tree_param":{"num_deleted":"0","num_feature":"53","num_nodes":"5","size_leaf_vector":"0"}},{"base_weights":[-5.8711076E-1],"categories":[],"categories_nodes":[],"categories_segments":[],"categories_sizes":[],"default_left":[false],"id":11,"left_children":[-1],"loss_changes":[0E0],"parents":[2147483647],"right_children":[-1],"split_conditions":[-4.1097756E-3],"split_indices":[0],"split_type":[0],"sum_hessian":[9.44344E1],"tree_param":{"num_deleted":"0","num_feature":"53","num_nodes":"1","size_leaf_vector":"0"}},{"base_weights":[3.6991593E-1,2.5856175E0,-1.8205221E-1,-3.890657E-1,2.0586722E0,-5.3515214E-1,7.9883647E-1,3.301583E-2,-5.639859E-1,1.5486096E0,-3.6163145E-1,-5.789939E-1,-1.6341464E-1],"categories":[],"categories_nodes":[],"categories_segments":[],"categories_sizes":[],"default_left":[true,false,true,true,false,true,true,false,true,false,false,false,false],"id":12,"left_children":[1,-1,3,5,-1,7,9,-1,11,-1,-1,-1,-1],"loss_changes":[1.15873474E2,0E0,3.736656E1,1.3395348E1,0E0,1.1110668E0,8.703722E0,0E0,1.8645668E-1,0E0,0E0,0E0,0E0],"parents":[2147483647,0,0,2,2,3,3,5,5,6,6,8,8],"right_children":[2,-1,4,6,-1,8,10,-1,12,-1,-1,-1,-1],"split_conditions":[7.20115E-2,1.8099323E-2,9.14357E1,8.49707E0,1.4410706E-2,3.1753601E1,7.55595E-2,2.3111081E-4,7.06006E0,1.0840268E-2,-2.5314202E-3,-4.0529575E-3,-1.1439025E-3],"split_indices":[7,0,30,18,0,35,7,0,18,0,0,0,0],"split_type":[0,0,0,0,0,0,0,0,0,0,0,0,0],"sum_hessian":[9.1975746E1,1.6873539E1,7.510221E1,7.026351E1,4.838694E0,6.354753E1,6.7159834E0,3.055181E0,6.049235E1,3.6735678E0,3.0424159E0,5.7449093E1,3.0432587E0],"tree_param":{"num_deleted":"0","num_feature":"53","num_nodes":"13","size_leaf_vector":"0"}},{"base_weights":[2.8022566E-1,-3.9672008E-1,2.6198127E0,1.0847685E0,-5.8148706E-1,1.4420749E-1,1.6674579E0],"categories":[],"categories_nodes":[],"categories_segments":[],"categories_sizes":[],"default_left":[true,true,false,true,false,false,false],"id":13,"left_children":[1,3,-1,5,-1,-1,-1],"loss_changes":[1.517022E2,2.1793777E1,0E0,4.4600782E0,0E0,0E0,0E0],"parents":[2147483647,0,0,1,1,3,3],"right_children":[2,4,-1,6,-1,-1,-1],"split_conditions":[7.44385E-2,7.6739126E-1,1.833869E-2,8.65E1,-4.0704096E-3,1.0094525E-3,1.1672206E-2],"split_indices":[5,2,0,51,0,0,0],"split_type":[0,0,0,0,0,0,0],"sum_hessian":[9.247281E1,7.3008965E1,1.946385E1,7.015516E0,6.599345E1,3.6380494E0,3.3774664E0],"tree_param":{"num_deleted":"0","num_feature":"53","num_nodes":"7","size_leaf_vector":"0"}},{"base_weights":[-9.49587E-2,-5.5661774E-1,1.236053E0,-5.8230263E-1,-5.6430843E-2,2.517747E0,-5.055326E-1],"categories":[],"categories_nodes":[],"categories_segments":[],"categories_sizes":[],"default_left":[true,true,true,false,false,false,false],"id":14,"left_children":[1,3,5,-1,-1,-1,-1],"loss_changes":[6.2464417E1,9.002991E-1,6.108036E1,0E0,0E0,0E0,0E0],"parents":[2147483647,0,0,1,1,2,2],"right_children":[2,4,6,-1,-1,-1,-1],"split_conditions":[2.6865501E-2,2.5859501E-2,9.3265E-3,-4.0761186E-3,-3.950159E-4,1.762423E-2,-3.5387285E-3],"split_indices":[3,3,4,0,0,0,0],"split_type":[0,0,0,0,0,0,0],"sum_hessian":[9.7415825E1,7.319269E1,2.4223137E1,6.930547E1,3.8872154E0,1.3440486E1,1.0782652E1],"tree_param":{"num_deleted":"0","num_feature":"53","num_nodes":"7","size_leaf_vector":"0"}},{"base_weights":[-1.918299E-2,2.418922E0,-5.8392227E-1],"categories":[],"categories_nodes":[],"categories_segments":[],"categories_sizes":[],"default_left":[true,false,false],"id":15,"left_children":[1,-1,-1],"loss_changes":[1.336807E2,0E0,0E0],"parents":[2147483647,0,0],"right_children":[2,-1,-1],"split_conditions":[-3.3999968E-5,1.6932454E-2,-4.087456E-3],"split_indices":[3,0,0],"split_type":[0,0,0],"sum_hessian":[9.303696E1,1.6262335E1,7.677462E1],"tree_param":{"num_deleted":"0","num_feature":"53","num_nodes":"3","size_leaf_vector":"0"}},{"base_weights":[2.9501885E-2,1.4282231E0,-5.4147947E-1,-4.3064317E-1,2.5784655E0,-5.676098E-1,3.2600153E-2,-1.6265729E-1,-4.7944376E-1,-1.6394502E-1,-5.811537E-1],"categories":[],"categories_nodes":[],"categories_segments":[],"categories_sizes":[],"default_left":[true,true,true,true,false,true,false,true,true,false,false],"id":16,"left_children":[1,3,5,-1,-1,9,-1,-1,-1,-1,-1],"loss_changes":[8.1713745E1,6.561228E1,1.1280384E0,1.4653921E-2,0E0,1.9036484E-1,0E0,0E0,0E0,0E0,0E0],"parents":[2147483647,0,0,1,1,2,2,3,3,5,5],"right_children":[2,4,6,-1,-1,10,-1,-1,-1,-1,-1],"split_conditions":[-8.094725E0,2.016219E0,7.911535E-1,-3.0145023E-3,1.8049259E-2,-7.929345E0,2.2820108E-4,-1.1386011E-3,-3.3561063E-3,-1.1476151E-3,-4.068076E-3],"split_indices":[46,2,34,4,0,46,0,2147483647,2147483647,0,0],"split_type":[0,0,0,0,0,0,0,0,0,0,0],"sum_hessian":[9.837896E1,2.7647865E1,7.0731094E1,1.1046774E1,1.6601091E1,6.767336E1,3.0577388E0,3.036761E0,8.010013E0,3.0477314E0,6.4625626E1],"tree_param":{"num_deleted":"2","num_feature":"53","num_nodes":"11","size_leaf_vector":"0"}},{"base_weights":[-5.869808E-1],"categories":[],"categories_nodes":[],"categories_segments":[],"categories_sizes":[],"default_left":[false],"id":17,"left_children":[-1],"loss_changes":[0E0],"parents":[2147483647],"right_children":[-1],"split_conditions":[-4.1088657E-3],"split_indices":[0],"split_type":[0],"sum_hessian":[9.6909546E1],"tree_param":{"num_deleted":"0","num_feature":"53","num_nodes":"1","size_leaf_vector":"0"}},{"base_weights":[4.747478E-1,2.575972E0,-1.05225176E-1,-3.3803946E-1,2.1278877E0,7.309208E-1,-5.477132E-1,-4.5550594E-1,2.0165403E0,3.503716E-2,-5.7865006E-1],"categories":[],"categories_nodes":[],"categories_segments":[],"categories_sizes":[],"default_left":[true,false,true,true,false,true,true,false,false,false,false],"id":18,"left_children":[1,-1,3,5,-1,7,9,-1,-1,-1,-1],"loss_changes":[1.208446E2,0E0,4.265913E1,1.728019E1,0E0,2.153419E1,1.1693478E0,0E0,0E0,0E0,0E0],"parents":[2147483647,0,0,2,2,3,3,5,5,6,6],"right_children":[2,-1,4,6,-1,8,10,-1,-1,-1,-1],"split_conditions":[7.2084E-2,1.8031806E-2,9.14055E1,7.5193E-2,1.4895215E-2,2.4E1,-1.19741455E2,-3.1885416E-3,1.4115782E-2,2.4526013E-4,-4.0505505E-3],"split_indices":[7,0,30,7,0,0,1,0,0,0,0],"split_type":[0,0,0,0,0,0,0,0,0,0,0],"sum_hessian":[9.671757E1,1.9432205E1,7.728536E1,7.1525665E1,5.7596955E0,1.0913646E1,6.061202E1,6.3473825E0,4.566263E0,3.0421786E0,5.756984E1],"tree_param":{"num_deleted":"0","num_feature":"53","num_nodes":"11","size_leaf_vector":"0"}},{"base_weights":[2.8150862E-1,-4.141745E-1,2.5892532E0,6.359939E-1,-5.5236894E-1,-2.2611944E-1,1.2723253E0,-5.805133E-1,3.274334E-2],"categories":[],"categories_nodes":[],"categories_segments":[],"categories_sizes":[],"default_left":[true,true,false,true,true,false,false,false,false],"id":19,"left_children":[1,3,-1,5,7,-1,-1,-1,-1],"loss_changes":[1.5900037E2,1.1847672E1,0E0,5.9845486E0,1.1732082E0,0E0,0E0,0E0,0E0],"parents":[2147483647,0,0,1,1,3,3,4,4],"right_children":[2,4,-1,6,8,-1,-1,-1,-1],"split_conditions":[6.238E-2,-3.5958298E1,1.8124772E-2,3.9E1,2.9798001E-2,-1.5828362E-3,8.906277E-3,-4.063593E-3,2.2920338E-4],"split_indices":[8,37,0,0,3,0,0,0,0],"split_type":[0,0,0,0,0,0,0,0,0],"sum_hessian":[9.5701385E1,7.479504E1,2.0906345E1,7.860107E0,6.693493E1,3.8853996E0,3.9747074E0,6.3878063E1,3.0568671E0],"tree_param":{"num_deleted":"0","num_feature":"53","num_nodes":"9","size_leaf_vector":"0"}},{"base_weights":[-1.08618684E-1,-5.819937E-1,1.0239589E0,2.487243E0,-5.2564365E-1],"categories":[],"categories_nodes":[],"categories_segments":[],"categories_sizes":[],"default_left":[true,false,true,false,false],"id":20,"left_children":[1,-1,3,-1,-1],"loss_changes":[5.4892452E1,0E0,7.120468E1,0E0,0E0],"parents":[2147483647,0,0,2,2],"right_children":[2,-1,4,-1,-1],"split_conditions":[2.5764499E-2,-4.073956E-3,8.954E-3,1.7410701E-2,-3.6795055E-3],"split_indices":[3,0,4,0,0],"split_type":[0,0,0,0,0],"sum_hessian":[9.8162605E1,6.9913605E1,2.8249E1,1.3906745E1,1.4342257E1],"tree_param":{"num_deleted":"0","num_feature":"53","num_nodes":"5","size_leaf_vector":"0"}},{"base_weights":[-9.987615E-3,-5.7250345E-1,2.5351286E0,-1.6390921E-1,-5.838642E-1],"categories":[],"categories_nodes":[],"categories_segments":[],"categories_sizes":[],"default_left":[true,true,false,false,false],"id":21,"left_children":[1,3,-1,-1,-1],"loss_changes":[1.4653368E2,1.9757462E-1,0E0,0E0,0E0],"parents":[2147483647,0,0,1,1],"right_children":[2,4,-1,-1,-1],"split_conditions":[4.574415E0,-2.73105E-2,1.77459E-2,-1.1473645E-3,-4.0870495E-3],"split_indices":[2,4,0,0,0],"split_type":[0,0,0,0,0],"sum_hessian":[9.832418E1,8.1795944E1,1.6528238E1,3.047476E0,7.874847E1],"tree_param":{"num_deleted":"0","num_feature":"53","num_nodes":"5","size_leaf_vector":"0"}},{"base_weights":[1.0555616E-1,1.5604687E0,-5.1078135E-1,-4.934313E-1,2.557119E0,4.239074E-1,-5.6610215E-1,-5.800941E-1,-1.6321218E-1],"categories":[],"categories_nodes":[],"categories_segments":[],"categories_sizes":[],"default_left":[true,true,true,false,false,false,true,false,false],"id":22,"left_children":[1,3,5,-1,-1,-1,7,-1,-1],"loss_changes":[8.949348E1,6.3241936E1,4.118191E0,0E0,0E0,0E0,1.8994904E-1,0E0,0E0],"parents":[2147483647,0,0,1,1,2,2,6,6],"right_children":[2,4,6,-1,-1,-1,8,-1,-1],"split_conditions":[-8.08531E0,2.073844E0,-5.0689156E1,-3.4540193E-3,1.7899834E-2,2.9673518E-3,3.10973E0,-4.0606586E-3,-1.1424853E-3],"split_indices":[46,2,1,0,0,0,42,0,0],"split_type":[0,0,0,0,0,0,0,0,0],"sum_hessian":[9.60235E1,2.7661858E1,6.836164E1,9.367372E0,1.8294487E1,3.0753717E0,6.528627E1,6.2244907E1,3.0413637E0],"tree_param":{"num_deleted":"0","num_feature":"53","num_nodes":"9","size_leaf_vector":"0"}},{"base_weights":[-5.866677E-1],"categories":[],"categories_nodes":[],"categories_segments":[],"categories_sizes":[],"default_left":[false],"id":23,"left_children":[-1],"loss_changes":[0E0],"parents":[2147483647],"right_children":[-1],"split_conditions":[-4.1066743E-3],"split_indices":[0],"split_type":[0],"sum_hessian":[9.798872E1],"tree_param":{"num_deleted":"0","num_feature":"53","num_nodes":"1","size_leaf_vector":"0"}},{"base_weights":[3.636158E-1,2.4745238E0,-1.8191454E-1,-3.7457892E-1,1.9105943E0,4.813397E-1,-5.4891616E-1,-4.788196E-1,1.9059916E0,3.493862E-2,-5.788918E-1],"categories":[],"categories_nodes":[],"categories_segments":[],"categories_sizes":[],"default_left":[true,false,true,true,false,true,true,false,false,false,false],"id":24,"left_children":[1,-1,3,5,-1,7,9,-1,-1,-1,-1],"loss_changes":[1.1690999E2,0E0,3.4455803E1,1.1970722E1,0E0,2.1032425E1,1.1717453E0,0E0,0E0,0E0,0E0],"parents":[2147483647,0,0,2,2,3,3,5,5,6,6],"right_children":[2,-1,4,6,-1,8,10,-1,-1,-1,-1],"split_conditions":[7.2084E-2,1.7321667E-2,9.14055E1,7.5193E-2,1.3374161E-2,2.4E1,2.7795E3,-3.3517373E-3,1.3341941E-2,2.4457034E-4,-4.0522427E-3],"split_indices":[7,0,30,7,0,0,27,0,0,0,0],"split_type":[0,0,0,0,0,0,0,0,0,0,0],"sum_hessian":[9.874096E1,1.8825283E1,7.991567E1,7.468148E1,5.234196E0,1.2041431E1,6.264005E1,7.986592E0,4.05484E0,3.0427833E0,5.9597263E1],"tree_param":{"num_deleted":"0","num_feature":"53","num_nodes":"11","size_leaf_vector":"0"}},{"base_weights":[2.8817192E-1,-5.671077E-1,2.1552858E0,-1.6268367E-1,-5.805131E-1,2.5671353E0,-4.046537E-1],"categories":[],"categories_nodes":[],"categories_segments":[],"categories_sizes":[],"default_left":[true,true,true,false,false,false,false],"id":25,"left_children":[1,3,5,-1,-1,-1,-1],"loss_changes":[1.6264023E2,1.9270515E-1,3.574434E1,0E0,0E0,0E0,0E0],"parents":[2147483647,0,0,1,1,2,2],"right_children":[2,4,6,-1,-1,-1,-1],"split_conditions":[1.04025E-2,3.0079E-2,9.15258E1,-1.1387857E-3,-4.063592E-3,1.7969947E-2,-2.832576E-3],"split_indices":[4,5,30,0,0,0,0],"split_type":[0,0,0,0,0,0,0],"sum_hessian":[9.831638E1,6.83839E1,2.9932478E1,3.0368676E0,6.534704E1,2.5779402E1,4.1530776E0],"tree_param":{"num_deleted":"0","num_feature":"53","num_nodes":"7","size_leaf_vector":"0"}},{"base_weights":[-6.212751E-2,1.2727861E0,-5.8201164E-1,-5.086353E-1,2.4747477E0],"categories":[],"categories_nodes":[],"categories_segments":[],"categories_sizes":[],"default_left":[true,true,false,false,false],"id":26,"left_children":[1,3,-1,-1,-1],"loss_changes":[7.141748E1,6.43407E1,0E0,0E0,0E0],"parents":[2147483647,0,0,1,1],"right_children":[2,4,-1,-1,-1],"split_conditions":[1.097875E0,8.871732E-1,-4.074082E-3,-3.5604471E-3,1.7323235E-2],"split_indices":[2,2,0,0,0],"split_type":[0,0,0,0,0],"sum_hessian":[9.877216E1,2.6873161E1,7.1899E1,1.1291597E1,1.5581564E1],"tree_param":{"num_deleted":"0","num_feature":"53","num_nodes":"5","size_leaf_vector":"0"}},{"base_weights":[-1.2538396E-1,-5.8341897E-1,2.4103327E0],"categories":[],"categories_nodes":[],"categories_segments":[],"categories_sizes":[],"default_left":[true,false,false],"id":27,"left_children":[1,-1,-1],"loss_changes":[1.1102503E2,0E0,0E0],"parents":[2147483647,0,0],"right_children":[2,-1,-1],"split_conditions":[4.5827384E0,-4.083933E-3,1.687233E-2],"split_indices":[2,0,0],"split_type":[0,0,0],"sum_hessian":[9.117046E1,7.85259E1,1.2644558E1],"tree_param":{"num_deleted":"0","num_feature":"53","num_nodes":"3","size_leaf_vector":"0"}},{"base_weights":[1.2460052E-1,-5.6598955E-1,1.2756184E0,-1.6025424E-1,-5.7990557E-1,-5.335726E-1,2.559439E0],"categories":[],"categories_nodes":[],"categories_segments":[],"categories_sizes":[],"default_left":[true,true,true,false,false,false,false],"id":28,"left_children":[1,3,5,-1,-1,-1,-1],"loss_changes":[8.606239E1,1.9762611E-1,9.6879166E1,0E0,0E0,0E0,0E0],"parents":[2147483647,0,0,1,1,2,2],"right_children":[2,4,6,-1,-1,-1,-1],"split_conditions":[1.4566E4,6.28959E-1,4.21295E-2,-1.1217797E-3,-4.059339E-3,-3.7350084E-3,1.7916074E-2],"split_indices":[28,34,5,0,0,0,0],"split_type":[0,0,0,0,0,0,0],"sum_hessian":[1.04454124E2,6.591991E1,3.8534218E1,3.0160403E0,6.290387E1,1.6479574E1,2.2054644E1],"tree_param":{"num_deleted":"0","num_feature":"53","num_nodes":"7","size_leaf_vector":"0"}},{"base_weights":[-5.8581686E-1],"categories":[],"categories_nodes":[],"categories_segments":[],"categories_sizes":[],"default_left":[false],"id":29,"left_children":[-1],"loss_changes":[0E0],"parents":[2147483647],"right_children":[-1],"split_conditions":[-4.100718E-3],"split_indices":[0],"split_type":[0],"sum_hessian":[9.467039E1],"tree_param":{"num_deleted":"0","num_feature":"53","num_nodes":"1","size_leaf_vector":"0"}},{"base_weights":[3.9123648E-1,2.4770312E0,-1.3356377E-1,-3.763262E-1,2.0395565E0,-5.6512976E-1,6.993054E-1,-5.791857E-1,-1.6190758E-1,-3.268748E-1,1.7800498E0],"categories":[],"categories_nodes":[],"categories_segments":[],"categories_sizes":[],"default_left":[true,false,true,true,false,true,true,false,false,false,false],"id":30,"left_children":[1,-1,3,5,-1,7,9,-1,-1,-1,-1],"loss_changes":[1.13328896E2,0E0,4.5920174E1,1.6502575E1,0E0,1.9174385E-1,1.4967236E1,0E0,0E0,0E0,0E0],"parents":[2147483647,0,0,2,2,3,3,5,5,6,6],"right_children":[2,-1,4,6,-1,8,10,-1,-1,-1,-1],"split_conditions":[7.20335E-2,1.7339218E-2,9.14055E1,7.68457E0,1.4276896E-2,2.9972E-2,8.62744E0,-4.0543E-3,-1.1333531E-3,-2.2881236E-3,1.2460349E-2],"split_indices":[7,0,30,18,0,3,17,0,0,0,0],"split_type":[0,0,0,0,0,0,0,0,0,0,0],"sum_hessian":[1.00927635E2,1.8793566E1,8.213407E1,7.536823E1,6.7658415E0,6.492184E1,1.0446393E1,6.1891567E1,3.0302722E0,6.074076E0,4.3723173E0],"tree_param":{"num_deleted":"0","num_feature":"53","num_nodes":"11","size_leaf_vector":"0"}},{"base_weights":[3.1052688E-1,-3.272808E-1,2.5040152E0,1.6958735E0,-5.684788E-1,-5.8118147E-1,-1.6138665E-1],"categories":[],"categories_nodes":[],"categories_segments":[],"categories_sizes":[],"default_left":[true,true,false,false,true,false,false],"id":31,"left_children":[1,3,-1,-1,5,-1,-1],"loss_changes":[1.4615355E2,4.184292E1,0E0,0E0,1.9807816E-1,0E0,0E0],"parents":[2147483647,0,0,1,1,4,4],"right_children":[2,4,-1,-1,6,-1,-1],"split_conditions":[7.44385E-2,7.5906765E-1,1.7528107E-2,1.1871115E-2,-3.159965E1,-4.0682703E-3,-1.1297066E-3],"split_indices":[5,2,0,0,47,0,0],"split_type":[0,0,0,0,0,0,0],"sum_hessian":[1.012967E2,7.979581E1,2.1500895E1,7.214973E0,7.258083E1,6.95552E1,3.025633E0],"tree_param":{"num_deleted":"0","num_feature":"53","num_nodes":"7","size_leaf_vector":"0"}},{"base_weights":[-7.1812764E-2,-5.80763E-1,9.787779E-1,2.43876E0,-5.333435E-1],"categories":[],"categories_nodes":[],"categories_segments":[],"categories_sizes":[],"default_left":[true,false,true,false,false],"id":32,"left_children":[1,-1,3,-1,-1],"loss_changes":[5.6012596E1,0E0,7.818645E1,0E0,0E0],"parents":[2147483647,0,0,2,2],"right_children":[2,-1,4,-1,-1],"split_conditions":[2.5859501E-2,-4.065341E-3,9.06225E-2,1.7071322E-2,-3.7334047E-3],"split_indices":[3,0,7,0,0],"split_type":[0,0,0,0,0],"sum_hessian":[1.0062931E2,6.839184E1,3.2237473E1,1.5777946E1,1.6459526E1],"tree_param":{"num_deleted":"0","num_feature":"53","num_nodes":"5","size_leaf_vector":"0"}},{"base_weights":[-2.070063E-2,2.3797793E0,-5.836279E-1],"categories":[],"categories_nodes":[],"categories_segments":[],"categories_sizes":[],"default_left":[true,false,false],"id":33,"left_children":[1,-1,-1],"loss_changes":[1.4084833E2,0E0,0E0],"parents":[2147483647,0,0],"right_children":[2,-1,-1],"split_conditions":[-3.3999968E-5,1.6658455E-2,-4.0853955E-3],"split_indices":[3,0,0],"split_type":[0,0,0],"sum_hessian":[1.001764E2,1.7803265E1,8.237314E1],"tree_param":{"num_deleted":"0","num_feature":"53","num_nodes":"3","size_leaf_vector":"0"}},{"base_weights":[1.0446564E-1,1.4115595E0,-5.348146E-1,-4.3521044E-1,2.4736004E0,-5.632493E-1,3.3521697E-2,-1.5919437E-1,-4.8396814E-1,-1.6282581E-1,-5.7801884E-1],"categories":[],"categories_nodes":[],"categories_segments":[],"categories_sizes":[],"default_left":[true,true,true,true,false,true,false,true,true,false,false],"id":34,"left_children":[1,3,5,-1,-1,9,-1,-1,-1,-1,-1],"loss_changes":[8.2323265E1,6.553329E1,1.1107922E0,2.7581453E-2,0E0,1.8640518E-1,0E0,0E0,0E0,0E0,0E0],"parents":[2147483647,0,0,1,1,2,2,3,3,5,5],"right_children":[2,4,6,-1,-1,10,-1,-1,-1,-1,-1],"split_conditions":[-8.094725E0,2.073844E0,3.0076551E0,-3.0464733E-3,1.7315203E-2,-7.99126E0,2.3465189E-4,-1.1143606E-3,-3.3877771E-3,-1.1397807E-3,-4.046132E-3],"split_indices":[46,2,32,4,0,46,0,2147483647,2147483647,0,0],"split_type":[0,0,0,0,0,0,0,0,0,0,0],"sum_hessian":[9.4713135E1,3.0314663E1,6.439847E1,1.1499227E1,1.8815437E1,6.1347088E1,3.0513816E0,3.0069542E0,8.492272E0,3.0377684E0,5.830932E1],"tree_param":{"num_deleted":"2","num_feature":"53","num_nodes":"11","size_leaf_vector":"0"}},{"base_weights":[-5.848482E-1],"categories":[],"categories_nodes":[],"categories_segments":[],"categories_sizes":[],"default_left":[false],"id":35,"left_children":[-1],"loss_changes":[0E0],"parents":[2147483647],"right_children":[-1],"split_conditions":[-4.0939376E-3],"split_indices":[0],"split_type":[0],"sum_hessian":[9.0813156E1],"tree_param":{"num_deleted":"0","num_feature":"53","num_nodes":"1","size_leaf_vector":"0"}},{"base_weights":[4.409118E-1,-2.7577484E-1,1.6453683E0,-4.4285196E-1,1.7053105E0,2.2778022E0,-1.4385554E-1,7.8268933E-1,-5.4050446E-1,2.4886084E0,4.0923122E-1,4.1194835E-1,-4.5319235E-1,-5.748918E-1,3.7284695E-2],"categories":[],"categories_nodes":[],"categories_segments":[],"categories_sizes":[],"default_left":[true,true,true,true,false,true,true,false,true,false,false,false,false,false,false],"id":36,"left_children":[1,3,5,7,-1,9,11,-1,13,-1,-1,-1,-1,-1,-1],"loss_changes":[8.465098E1,2.2209137E1,4.1932655E1,7.9380445E0,0E0,8.626358E0,2.3347175E0,0E0,1.1568756E0,0E0,0E0,0E0,0E0,0E0,0E0],"parents":[2147483647,0,0,1,1,2,2,3,3,5,5,6,6,8,8],"right_children":[2,4,6,8,-1,10,12,-1,14,-1,-1,-1,-1,-1,-1],"split_conditions":[5.55957E0,9.15258E1,6.637E-2,4.953E-2,1.1937174E-2,1.6794479E0,2.68994E0,5.4788254E-3,2.9885E-2,1.7420258E-2,2.8646186E-3,2.8836385E-3,-3.1723466E-3,-4.024243E-3,2.6099288E-4],"split_indices":[18,30,5,8,0,2,17,0,3,0,0,0,0,0,0],"split_type":[0,0,0,0,0,0,0,0,0,0,0,0,0,0,0],"sum_hessian":[9.501313E1,6.0535076E1,3.4478054E1,5.7258995E1,3.2760832E0,2.5070349E1,9.407707E0,3.1903193E0,5.4068676E1,2.193236E1,3.1379876E0,3.1265745E0,6.281132E0,5.104098E1,3.027693E0],"tree_param":{"num_deleted":"0","num_feature":"53","num_nodes":"15","size_leaf_vector":"0"}},{"base_weights":[2.3909117E-1,-5.677043E-1,2.0216427E0,-1.6106047E-1,-5.8052087E-1,2.4826267E0,-4.2659572E-1],"categories":[],"categories_nodes":[],"categories_segments":[],"categories_sizes":[],"default_left":[true,true,true,false,false,false,false],"id":37,"left_children":[1,3,5,-1,-1,-1,-1],"loss_changes":[1.532006E2,1.9761467E-1,3.951175E1,0E0,0E0,0E0,0E0],"parents":[2147483647,0,0,1,1,2,2],"right_children":[2,4,6,-1,-1,-1,-1],"split_conditions":[1.03825E-2,4.48435E-2,9.15258E1,-1.1274233E-3,-4.0636463E-3,1.7378388E-2,-2.9861701E-3],"split_indices":[4,8,30,0,0,0,0],"split_type":[0,0,0,0,0,0,0],"sum_hessian":[1.02929756E2,7.179698E1,3.1132778E1,3.0227969E0,6.8774185E1,2.6175959E1,4.9568186E0],"tree_param":{"num_deleted":"0","num_feature":"53","num_nodes":"7","size_leaf_vector":"0"}},{"base_weights":[-9.761456E-2,1.0882201E0,-5.810932E-1,-4.557066E-1,2.3771176E0,-1.5998676E-1,-5.0170344E-1],"categories":[],"categories_nodes":[],"categories_segments":[],"categories_sizes":[],"default_left":[true,true,false,true,false,true,true],"id":38,"left_children":[1,3,-1,-1,-1,-1,-1],"loss_changes":[5.97143E1,6.230963E1,0E0,4.9342155E-2,0E0,0E0,0E0],"parents":[2147483647,0,0,1,1,3,3],"right_children":[2,4,-1,-1,-1,-1,-1],"split_conditions":[1.0972345E0,8.871732E-1,-4.0676524E-3,-3.1899463E-3,1.6639823E-2,-1.1199074E-3,-3.5119243E-3],"split_indices":[2,2,0,4,0,2147483647,2147483647],"split_type":[0,0,0,0,0,0,0],"sum_hessian":[9.9948296E1,2.8223213E1,7.172508E1,1.342943E1,1.4793783E1,3.0132518E0,1.0416178E1],"tree_param":{"num_deleted":"2","num_feature":"53","num_nodes":"7","size_leaf_vector":"0"}},{"base_weights":[-8.808E-2,2.2454891E0,-5.831471E-1],"categories":[],"categories_nodes":[],"categories_segments":[],"categories_sizes":[],"default_left":[true,false,false],"id":39,"left_children":[1,-1,-1],"loss_changes":[1.1819184E2,0E0,0E0],"parents":[2147483647,0,0],"right_children":[2,-1,-1],"split_conditions":[-3.3999968E-5,1.5718425E-2,-4.0820297E-3],"split_indices":[3,0,0],"split_type":[0,0,0],"sum_hessian":[9.803948E1,1.5921198E1,8.2118286E1],"tree_param":{"num_deleted":"0","num_feature":"53","num_nodes":"3","size_leaf_vector":"0"}},{"base_weights":[7.148504E-2,-5.7863736E-1,1.2277514E0,-5.2374095E-1,2.442244E0],"categories":[],"categories_nodes":[],"categories_segments":[],"categories_sizes":[],"default_left":[true,false,true,false,false],"id":40,"left_children":[1,-1,3,-1,-1],"loss_changes":[7.432297E1,0E0,7.816719E1,0E0,0E0],"parents":[2147483647,0,0,2,2],"right_children":[2,-1,4,-1,-1],"split_conditions":[1.4582E4,-4.0504616E-3,2.05E1,-3.6661867E-3,1.709571E-2],"split_indices":[28,0,0,0,0],"split_type":[0,0,0,0,0],"sum_hessian":[9.498112E1,6.143679E1,3.3544327E1,1.42013E1,1.9343025E1],"tree_param":{"num_deleted":"0","num_feature":"53","num_nodes":"5","size_leaf_vector":"0"}},{"base_weights":[-5.8443826E-1],"categories":[],"categories_nodes":[],"categories_segments":[],"categories_sizes":[],"default_left":[false],"id":41,"left_children":[-1],"loss_changes":[0E0],"parents":[2147483647],"right_children":[-1],"split_conditions":[-4.091068E-3],"split_indices":[0],"split_type":[0],"sum_hessian":[9.107275E1],"tree_param":{"num_deleted":"0","num_feature":"53","num_nodes":"1","size_leaf_vector":"0"}},{"base_weights":[3.588766E-1,-3.6367238E-1,1.5948163E0,8.055886E-1,-5.583785E-1,2.1739264E0,-2.942991E-1,-1.06873915E-1,1.574537E0,-5.747373E-1,-1.6103789E-1,2.1739256E-1,2.3951576E0,-4.3734792E-1,3.3617433E-2],"categories":[],"categories_nodes":[],"categories_segments":[],"categories_sizes":[],"default_left":[true,true,true,true,true,true,true,false,false,false,false,false,false,false,false],"id":42,"left_children":[1,3,5,7,9,11,13,-1,-1,-1,-1,-1,-1,-1,-1],"loss_changes":[9.053519E1,1.564913E1,4.2079994E1,7.399963E0,1.8356895E-1,1.14171295E1,5.2249336E-1,0E0,0E0,0E0,0E0,0E0,0E0,0E0,0E0],"parents":[2147483647,0,0,1,1,2,2,3,3,4,4,5,5,6,6],"right_children":[2,4,6,8,10,12,14,-1,-1,-1,-1,-1,-1,-1,-1],"split_conditions":[5.68457E0,8.89094E-1,3.9E1,7.577871E-1,4.55957E0,6.89512E-1,-3.2534E1,-7.4811745E-4,1.1021759E-2,-4.0231613E-3,-1.1272653E-3,1.521748E-3,1.6766103E-2,-3.0614354E-3,2.3532203E-4],"split_indices":[18,2,0,2,18,34,47,0,0,0,0,0,0,0,0],"split_type":[0,0,0,0,0,0,0,0,0,0,0,0,0,0,0],"sum_hessian":[9.80812E1,6.278667E1,3.529453E1,8.067048E0,5.4719624E1,2.6782732E1,8.511799E0,4.4767714E0,3.5902762E0,5.1698257E1,3.0213668E0,3.1235805E0,2.3659151E1,5.461754E0,3.050045E0],"tree_param":{"num_deleted":"0","num_feature":"53","num_nodes":"15","size_leaf_vector":"0"}},{"base_weights":[2.4217784E-1,-5.6693214E-1,1.9923899E0,-1.6036257E-1,-5.798716E-1,2.4415421E0,-4.2613024E-1],"categories":[],"categories_nodes":[],"categories_segments":[],"categories_sizes":[],"default_left":[true,true,true,false,false,false,false],"id":43,"left_children":[1,3,5,-1,-1,-1,-1],"loss_changes":[1.5024405E2,1.981678E-1,3.8449753E1,0E0,0E0,0E0,0E0],"parents":[2147483647,0,0,1,1,2,2],"right_children":[2,4,6,-1,-1,-1,-1],"split_conditions":[1.0403E-2,3.096E3,9.15258E1,-1.122538E-3,-4.0591015E-3,1.7090796E-2,-2.9829117E-3],"split_indices":[4,27,30,0,0,0,0],"split_type":[0,0,0,0,0,0,0],"sum_hessian":[1.0250073E2,7.10206E1,3.1480135E1,3.0167987E0,6.80038E1,2.653347E1,4.946666E0],"tree_param":{"num_deleted":"0","num_feature":"53","num_nodes":"7","size_leaf_vector":"0"}},{"base_weights":[-1.2119342E-1,1.1061857E0,-5.801413E-1,-5.0705576E-1,2.3171916E0],"categories":[],"categories_nodes":[],"categories_segments":[],"categories_sizes":[],"default_left":[true,true,false,false,false],"id":44,"left_children":[1,3,-1,-1,-1],"loss_changes":[5.566897E1,5.502845E1,0E0,0E0,0E0],"parents":[2147483647,0,0,1,1],"right_children":[2,4,-1,-1,-1],"split_conditions":[1.0972345E0,8.8653284E-1,-4.0609892E-3,-3.5493905E-3,1.6220342E-2],"split_indices":[2,2,0,0,0],"split_type":[0,0,0,0,0],"sum_hessian":[9.454746E1,2.4964247E1,6.958321E1,1.1202896E1,1.376135E1],"tree_param":{"num_deleted":"0","num_feature":"53","num_nodes":"5","size_leaf_vector":"0"}},{"base_weights":[-1.3246302E-2,2.2203662E0,-5.8208114E-1],"categories":[],"categories_nodes":[],"categories_segments":[],"categories_sizes":[],"default_left":[true,false,false],"id":45,"left_children":[1,-1,-1],"loss_changes":[1.2853741E2,0E0,0E0],"parents":[2147483647,0,0],"right_children":[2,-1,-1],"split_conditions":[-4.1491E-2,1.5542564E-2,-4.074568E-3],"split_indices":[4,0,0],"split_type":[0,0,0],"sum_hessian":[9.713178E1,1.8536966E1,7.859482E1],"tree_param":{"num_deleted":"0","num_feature":"53","num_nodes":"3","size_leaf_vector":"0"}},{"base_weights":[1.5053868E-1,-5.6202793E-1,1.2793566E0,-1.5852155E-1,-5.770021E-1,2.433329E0,-5.2665716E-1],"categories":[],"categories_nodes":[],"categories_segments":[],"categories_sizes":[],"default_left":[true,true,true,false,false,false,false],"id":46,"left_children":[1,3,5,-1,-1,-1,-1],"loss_changes":[8.1883354E1,1.9590569E-1,8.4493515E1,0E0,0E0,0E0,0E0],"parents":[2147483647,0,0,1,1,2,2],"right_children":[2,4,6,-1,-1,-1,-1],"split_conditions":[2.0943336E0,-1.4340201E-1,4.5827384E0,-1.1096508E-3,-4.0390147E-3,1.7033305E-2,-3.6866004E-3],"split_indices":[2,44,2,0,0,0,0],"split_type":[0,0,0,0,0,0,0],"sum_hessian":[9.8011795E1,6.069946E1,3.7312332E1,3.001131E0,5.769833E1,2.2341982E1,1.4970352E1],"tree_param":{"num_deleted":"0","num_feature":"53","num_nodes":"7","size_leaf_vector":"0"}},{"base_weights":[-5.8460575E-1],"categories":[],"categories_nodes":[],"categories_segments":[],"categories_sizes":[],"default_left":[false],"id":47,"left_children":[-1],"loss_changes":[0E0],"parents":[2147483647],"right_children":[-1],"split_conditions":[-4.0922402E-3],"split_indices":[0],"split_type":[0],"sum_hessian":[9.593317E1],"tree_param":{"num_deleted":"0","num_feature":"53","num_nodes":"1","size_leaf_vector":"0"}},{"base_weights":[3.851525E-1,-3.794468E-1,1.6914206E0,4.0022904E-1,-5.7413536E-1,2.4054368E0,-3.2146105E-1,-3.0756083E-1,9.254069E-1,3.5035346E-2,-4.568296E-1,2.2857432E-1,1.2274921E0],"categories":[],"categories_nodes":[],"categories_segments":[],"categories_sizes":[],"default_left":[true,true,true,true,false,false,true,false,true,false,false,false,false],"id":48,"left_children":[1,3,5,7,-1,-1,9,-1,11,-1,-1,-1,-1],"loss_changes":[1.0154709E2,1.0319474E1,5.5343414E1,5.831749E0,0E0,0E0,5.9012973E-1,0E0,1.2546468E0,0E0,0E0,0E0,0E0],"parents":[2147483647,0,0,1,1,2,2,3,3,6,6,8,8],"right_children":[2,4,6,8,-1,-1,10,-1,12,-1,-1,-1,-1],"split_conditions":[6.751955E0,9.35E1,6.9795E-3,5.6566E-2,-4.0189475E-3,1.6838057E-2,-7.0248346E0,-2.1529258E-3,-7.30982E0,2.4524741E-4,-3.1978074E-3,1.6000203E-3,8.5924445E-3],"split_indices":[16,29,4,8,0,0,46,0,1,0,0,0,0],"split_type":[0,0,0,0,0,0,0,0,0,0,0,0,0],"sum_hessian":[9.8386795E1,6.2955826E1,3.5430965E1,1.2157359E1,5.0798466E1,2.5865742E1,9.565226E0,5.5313773E0,6.6259813E0,3.040463E0,6.524763E0,3.0662487E0,3.5597327E0],"tree_param":{"num_deleted":"0","num_feature":"53","num_nodes":"13","size_leaf_vector":"0"}},{"base_weights":[2.5468874E-1,-5.6652325E-1,1.9223858E0,-1.5904503E-1,-5.7950383E-1,2.3452017E0,4.6482024E-1,1.3389136E0,-2.9590675E-1],"categories":[],"categories_nodes":[],"categories_segments":[],"categories_sizes":[],"default_left":[true,true,true,false,false,false,true,false,false],"id":49,"left_children":[1,3,5,-1,-1,-1,7,-1,-1],"loss_changes":[1.4791217E2,2.009697E-1,1.973822E1,0E0,0E0,0E0,7.7686954E0,0E0,0E0],"parents":[2147483647,0,0,1,1,2,2,6,6],"right_children":[2,4,6,-1,-1,-1,8,-1,-1],"split_conditions":[1.02965E-2,-4.5775E-3,3.7E1,-1.1133152E-3,-4.056527E-3,1.6416412E-2,5.69575E-2,9.372395E-3,-2.0713473E-3],"split_indices":[4,3,52,0,0,0,8,0,0],"split_type":[0,0,0,0,0,0,0,0,0],"sum_hessian":[1.04411476E2,7.0845924E1,3.356555E1,3.0054605E0,6.784046E1,2.5074018E1,8.491534E0,3.2440057E0,5.2475286E0],"tree_param":{"num_deleted":"0","num_feature":"53","num_nodes":"9","size_leaf_vector":"0"}},{"base_weights":[-4.7741447E-2,-5.648645E-1,1.1289834E0,-1.5848729E-1,-5.784346E-1,2.321258E0,-5.1462597E-1],"categories":[],"categories_nodes":[],"categories_segments":[],"categories_sizes":[],"default_left":[true,true,true,false,false,false,false],"id":50,"left_children":[1,3,5,-1,-1,-1,-1],"loss_changes":[6.0976524E1,1.9986343E-1,6.2392056E1,0E0,0E0,0E0,0E0],"parents":[2147483647,0,0,1,1,2,2],"right_children":[2,4,6,-1,-1,-1,-1],"split_conditions":[3.05E1,-3.05E1,8.975E-3,-1.109411E-3,-4.0490422E-3,1.6248807E-2,-3.6023818E-3],"split_indices":[52,24,4,0,0,0,0],"split_type":[0,0,0,0,0,0,0],"sum_hessian":[9.6110016E1,6.749058E1,2.8619444E1,3.0003047E0,6.449027E1,1.6109224E1,1.2510221E1],"tree_param":{"num_deleted":"0","num_feature":"53","num_nodes":"7","size_leaf_vector":"0"}},{"base_weights":[-4.622897E-2,2.2152758E0,-5.821693E-1],"categories":[],"categories_nodes":[],"categories_segments":[],"categories_sizes":[],"default_left":[true,false,false],"id":51,"left_children":[1,-1,-1],"loss_changes":[1.2554066E2,0E0,0E0],"parents":[2147483647,0,0],"right_children":[2,-1,-1],"split_conditions":[-3.3999968E-5,1.5506931E-2,-4.0751854E-3],"split_indices":[3,0,0],"split_type":[0,0,0],"sum_hessian":[9.945059E1,1.7852331E1,8.159826E1],"tree_param":{"num_deleted":"0","num_feature":"53","num_nodes":"3","size_leaf_vector":"0"}},{"base_weights":[2.7039224E-2,1.0901881E0,-5.7811236E-1,-5.293456E-1,2.361538E0],"categories":[],"categories_nodes":[],"categories_segments":[],"categories_sizes":[],"default_left":[true,true,false,false,false],"id":52,"left_children":[1,3,-1,-1,-1],"loss_changes":[6.499295E1,7.791275E1,0E0,0E0,0E0],"parents":[2147483647,0,0,1,1],"right_children":[2,4,-1,-1,-1],"split_conditions":[-1.4131499E-2,7.0404997E-3,-4.0467866E-3,-3.7054191E-3,1.6530765E-2],"split_indices":[4,3,0,0,0],"split_type":[0,0,0,0,0],"sum_hessian":[9.706091E1,3.462595E1,6.2434963E1,1.5741106E1,1.8884844E1],"tree_param":{"num_deleted":"0","num_feature":"53","num_nodes":"5","size_leaf_vector":"0"}},{"base_weights":[-5.837863E-1],"categories":[],"categories_nodes":[],"categories_segments":[],"categories_sizes":[],"default_left":[false],"id":53,"left_children":[-1],"loss_changes":[0E0],"parents":[2147483647],"right_children":[-1],"split_conditions":[-4.086504E-3],"split_indices":[0],"split_type":[0],"sum_hessian":[9.292671E1],"tree_param":{"num_deleted":"0","num_feature":"53","num_nodes":"1","size_leaf_vector":"0"}},{"base_weights":[3.6586E-1,2.330088E0,-1.5055385E-1,-4.287706E-1,8.688639E-1,-5.6088865E-1,9.8448807E-1,1.3973736E0,-4.2342606E-1,-1.584474E-1,-5.759633E-1,1.929335E0,-3.3518415E-2],"categories":[],"categories_nodes":[],"categories_segments":[],"categories_sizes":[],"default_left":[true,false,true,true,true,true,false,true,false,false,false,false,false],"id":54,"left_children":[1,-1,3,5,7,9,-1,11,-1,-1,-1,-1,-1],"loss_changes":[1.0453552E2,0E0,2.4266512E1,1.3519405E1,1.377901E1,1.9410515E-1,0E0,1.04464035E1,0E0,0E0,0E0,0E0,0E0],"parents":[2147483647,0,0,2,2,3,3,4,4,5,5,7,7],"right_children":[2,-1,4,6,8,10,-1,12,-1,-1,-1,-1,-1],"split_conditions":[7.20115E-2,1.6310615E-2,6.93506E0,3.65E1,7.35525E-2,-1.53145E1,6.891417E-3,1.34785E4,-2.9639825E-3,-1.1091318E-3,-4.0317434E-3,1.3505345E-2,-2.3462891E-4],"split_indices":[7,0,18,52,5,18,0,28,0,0,0,0,0],"split_type":[0,0,0,0,0,0,0,0,0,0,0,0,0],"sum_hessian":[1.00364525E2,1.9431376E1,8.093315E1,6.449118E1,1.6441969E1,6.0080795E1,4.410385E0,1.1554057E1,4.887912E0,3.0004687E0,5.7080326E1,7.914866E0,3.639191E0],"tree_param":{"num_deleted":"0","num_feature":"53","num_nodes":"13","size_leaf_vector":"0"}},{"base_weights":[2.0341393E-1,-3.7526E-1,2.325394E0,1.3890127E0,-5.802056E-1],"categories":[],"categories_nodes":[],"categories_segments":[],"categories_sizes":[],"default_left":[true,true,false,false,false],"id":55,"left_children":[1,3,-1,-1,-1],"loss_changes":[1.2702574E2,3.1220284E1,0E0,0E0,0E0],"parents":[2147483647,0,0,1,1],"right_children":[2,4,-1,-1,-1],"split_conditions":[6.238E-2,7.6162875E-1,1.6277758E-2,9.723089E-3,-4.0614395E-3],"split_indices":[8,2,0,0,0],"split_type":[0,0,0,0,0],"sum_hessian":[1.00025375E2,7.9886314E1,2.0139063E1,7.1115627E0,7.277475E1],"tree_param":{"num_deleted":"0","num_feature":"53","num_nodes":"5","size_leaf_vector":"0"}},{"base_weights":[-5.9442453E-2,1.2462215E0,-5.796114E-1,-4.267425E-1,2.2876575E0,-1.5862426E-1,-4.7606644E-1],"categories":[],"categories_nodes":[],"categories_segments":[],"categories_sizes":[],"default_left":[true,true,false,true,false,true,true],"id":56,"left_children":[1,3,-1,-1,-1,-1,-1],"loss_changes":[6.95189E1,5.2810547E1,0E0,1.9369364E-2,0E0,0E0,0E0],"parents":[2147483647,0,0,1,1,3,3],"right_children":[2,4,-1,-1,-1,-1,-1],"split_conditions":[1.0972345E0,8.871732E-1,-4.0572803E-3,-2.9871976E-3,1.6013604E-2,-1.1103699E-3,-3.3324652E-3],"split_indices":[2,2,0,28,0,2147483647,2147483647],"split_type":[0,0,0,0,0,0,0],"sum_hessian":[9.823215E1,2.7190445E1,7.10417E1,1.0885092E1,1.6305353E1,3.0014668E0,7.883625E0],"tree_param":{"num_deleted":"2","num_feature":"53","num_nodes":"7","size_leaf_vector":"0"}},{"base_weights":[-6.758478E-2,-5.583111E-1,2.2829545E0,2.9809657E-2,-5.813191E-1],"categories":[],"categories_nodes":[],"categories_segments":[],"categories_sizes":[],"default_left":[true,true,false,false,false],"id":57,"left_children":[1,3,-1,-1,-1],"loss_changes":[1.1778881E2,1.174797E0,0E0,0E0,0E0],"parents":[2147483647,0,0,1,1],"right_children":[2,4,-1,-1,-1],"split_conditions":[4.6121917E0,-1.542008E2,1.5980681E-2,2.0866761E-4,-4.069234E-3],"split_indices":[2,1,0,0,0],"split_type":[0,0,0,0,0],"sum_hessian":[9.790678E1,8.225848E1,1.56483E1,3.0746322E0,7.918384E1],"tree_param":{"num_deleted":"0","num_feature":"53","num_nodes":"5","size_leaf_vector":"0"}},{"base_weights":[1.02664486E-1,1.3791239E0,-5.206179E-1,-4.2902046E-1,2.3246744E0,-5.6269336E-1,2.2543204E-1,-1.6023006E-1,-5.770156E-1],"categories":[],"categories_nodes":[],"categories_segments":[],"categories_sizes":[],"default_left":[true,true,true,false,false,true,false,false,false],"id":58,"left_children":[1,3,5,-1,-1,7,-1,-1,-1],"loss_changes":[8.073537E1,5.884127E1,2.401535E0,0E0,0E0,1.9173622E-1,0E0,0E0,0E0],"parents":[2147483647,0,0,1,1,2,2,5,5],"right_children":[2,4,6,-1,-1,8,-1,-1,-1],"split_conditions":[-8.09613E0,2.073844E0,3.266045E0,-3.0031432E-3,1.6272722E-2,-4.3417442E1,1.5780244E-3,-1.1216104E-3,-4.039109E-3],"split_indices":[46,2,42,0,0,1,0,0,0],"split_type":[0,0,0,0,0,0,0,0,0],"sum_hessian":[9.7673065E1,3.1249626E1,6.642345E1,1.1105499E1,2.0144127E1,6.3342613E1,3.0808315E0,3.0142908E0,6.032832E1],"tree_param":{"num_deleted":"0","num_feature":"53","num_nodes":"9","size_leaf_vector":"0"}},{"base_weights":[-5.835158E-1],"categories":[],"categories_nodes":[],"categories_segments":[],"categories_sizes":[],"default_left":[false],"id":59,"left_children":[-1],"loss_changes":[0E0],"parents":[2147483647],"right_children":[-1],"split_conditions":[-4.084611E-3],"split_indices":[0],"split_type":[0],"sum_hessian":[9.425094E1],"tree_param":{"num_deleted":"0","num_feature":"53","num_nodes":"1","size_leaf_vector":"0"}},{"base_weights":[3.966678E-1,1.995114E0,-2.6481432E-1,2.345745E0,-3.8030463E-1,-4.8932087E-1,1.8087502E0,3.1492972E-1,-5.4580605E-1,4.098245E-2,-5.763455E-1],"categories":[],"categories_nodes":[],"categories_segments":[],"categories_sizes":[],"default_left":[true,true,true,false,false,true,false,false,true,false,false],"id":60,"left_children":[1,3,5,-1,-1,7,-1,-1,9,-1,-1],"loss_changes":[1.0693633E2,2.6391777E1,3.5564156E1,0E0,0E0,3.3908863E0,0E0,0E0,1.1834698E0,0E0,0E0],"parents":[2147483647,0,0,1,1,2,2,5,5,8,8],"right_children":[2,4,6,-1,-1,8,-1,-1,10,-1,-1],"split_conditions":[7.38135E-2,1.49445E4,6.781555E1,1.6420215E-2,-2.6621325E-3,7.5229496E-2,1.2661251E-2,2.204508E-3,-1.4031116E2,2.8687716E-4,-4.0344186E-3],"split_indices":[7,28,30,0,0,7,0,0,1,0,0],"split_type":[0,0,0,0,0,0,0,0,0,0,0],"sum_hessian":[9.813742E1,2.7544628E1,7.05928E1,2.4023544E1,3.521085E0,6.5075096E1,5.517696E0,3.66999E0,6.140511E1,3.0038965E0,5.840121E1],"tree_param":{"num_deleted":"0","num_feature":"53","num_nodes":"11","size_leaf_vector":"0"}},{"base_weights":[1.6584498E-1,-5.629593E-1,1.748947E0,-1.588813E-1,-5.770144E-1,2.2644544E0,-4.3876523E-1],"categories":[],"categories_nodes":[],"categories_segments":[],"categories_sizes":[],"default_left":[true,true,true,false,false,false,false],"id":61,"left_children":[1,3,5,-1,-1,-1,-1],"loss_changes":[1.1190231E2,1.9578934E-1,3.6411003E1,0E0,0E0,0E0,0E0],"parents":[2147483647,0,0,1,1,2,2],"right_children":[2,4,6,-1,-1,-1,-1],"split_conditions":[1.03825E-2,6.1829E-2,6.553565E1,-1.1121692E-3,-4.039101E-3,1.5851181E-2,-3.0713568E-3],"split_indices":[4,7,30,0,0,0,0],"split_type":[0,0,0,0,0,0,0],"sum_hessian":[9.328155E1,6.4758026E1,2.852352E1,3.0039513E0,6.1754078E1,2.302727E1,5.4962497E0],"tree_param":{"num_deleted":"0","num_feature":"53","num_nodes":"7","size_leaf_vector":"0"}},{"base_weights":[-1.1106429E-1,-5.544356E-1,1.1443248E0,-5.793501E-1,-2.8676597E-2,2.2308078E0,-5.011856E-1],"categories":[],"categories_nodes":[],"categories_segments":[],"categories_sizes":[],"default_left":[true,true,true,false,false,false,false],"id":62,"left_children":[1,3,5,-1,-1,-1,-1],"loss_changes":[5.843276E1,9.785881E-1,5.1325054E1,0E0,0E0,0E0,0E0],"parents":[2147483647,0,0,1,1,2,2],"right_children":[2,4,6,-1,-1,-1,-1],"split_conditions":[2.7162999E-2,2.5859501E-2,9.3265E-3,-4.055451E-3,-2.0073619E-4,1.5615655E-2,-3.5082994E-3],"split_indices":[3,3,4,0,0,0,0],"split_type":[0,0,0,0,0,0,0],"sum_hessian":[1.00701195E2,7.5243744E1,2.5457455E1,7.1644806E1,3.5989382E0,1.4904835E1,1.055262E1],"tree_param":{"num_deleted":"0","num_feature":"53","num_nodes":"7","size_leaf_vector":"0"}},{"base_weights":[-4.785614E-2,2.1907043E0,-5.8107305E-1],"categories":[],"categories_nodes":[],"categories_segments":[],"categories_sizes":[],"default_left":[true,false,false],"id":63,"left_children":[1,-1,-1],"loss_changes":[1.21814514E2,0E0,0E0],"parents":[2147483647,0,0],"right_children":[2,-1,-1],"split_conditions":[-3.3999968E-5,1.5334931E-2,-4.0675113E-3],"split_indices":[3,0,0],"split_type":[0,0,0],"sum_hessian":[9.7920204E1,1.7641293E1,8.0278915E1],"tree_param":{"num_deleted":"0","num_feature":"53","num_nodes":"3","size_leaf_vector":"0"}},{"base_weights":[1.9982427E-2,1.206883E0,-5.09852E-1,-4.3812603E-1,2.2227333E0,4.121588E-1,-5.6383437E-1,-5.7749635E-1,-1.5994E-1],"categories":[],"categories_nodes":[],"categories_segments":[],"categories_sizes":[],"default_left":[true,true,true,false,false,false,true,false,false],"id":64,"left_children":[1,3,5,-1,-1,-1,7,-1,-1],"loss_changes":[6.522222E1,5.542138E1,4.0363655E0,0E0,0E0,0E0,1.939907E-1,0E0,0E0],"parents":[2147483647,0,0,1,1,2,2,6,6],"right_children":[2,4,6,-1,-1,-1,8,-1,-1],"split_conditions":[-8.094725E0,3.964E3,-5.22099E1,-3.0668823E-3,1.5559133E-2,2.8851116E-3,3.130675E0,-4.0424746E-3,-1.1195801E-3],"split_indices":[46,27,1,0,0,0,42,0,0],"split_type":[0,0,0,0,0,0,0,0,0],"sum_hessian":[9.975791E1,2.9999437E1,6.975848E1,1.1887282E1,1.8112156E1,3.1243815E0,6.6634094E1,6.3622395E1,3.011701E0],"tree_param":{"num_deleted":"0","num_feature":"53","num_nodes":"9","size_leaf_vector":"0"}},{"base_weights":[-5.82896E-1],"categories":[],"categories_nodes":[],"categories_segments":[],"categories_sizes":[],"default_left":[false],"id":65,"left_children":[-1],"loss_changes":[0E0],"parents":[2147483647],"right_children":[-1],"split_conditions":[-4.0802723E-3],"split_indices":[0],"split_type":[0],"sum_hessian":[9.2873405E1],"tree_param":{"num_deleted":"0","num_feature":"53","num_nodes":"1","size_leaf_vector":"0"}},{"base_weights":[2.7799326E-1,2.1994834E0,-2.1872102E-1,-3.933591E-1,1.7186776E0,4.1594845E-1,-5.309738E-1,-4.5594314E-1,1.6204219E0,5.650903E-2,-5.75827E-1],"categories":[],"categories_nodes":[],"categories_segments":[],"categories_sizes":[],"default_left":[true,false,true,true,false,true,true,false,false,false,false],"id":66,"left_children":[1,-1,3,5,-1,7,9,-1,-1,-1,-1],"loss_changes":[9.429243E1,0E0,2.8257006E1,8.746962E0,0E0,1.4036481E1,1.7676601E0,0E0,0E0,0E0,0E0],"parents":[2147483647,0,0,2,2,3,3,5,5,6,6],"right_children":[2,-1,4,6,-1,8,10,-1,-1,-1,-1],"split_conditions":[7.2063E-2,1.53963845E-2,9.14357E1,7.46285E-2,1.2030744E-2,2.4E1,-6.5E0,-3.191602E-3,1.1342954E-2,3.9556323E-4,-4.0307892E-3],"split_indices":[7,0,30,7,0,0,26,0,0,0,0],"split_type":[0,0,0,0,0,0,0,0,0,0,0],"sum_hessian":[9.578624E1,1.82668E1,7.751944E1,7.2571724E1,4.9477205E0,9.95886E0,6.261286E1,6.4980116E0,3.4608493E0,4.404427E0,5.820843E1],"tree_param":{"num_deleted":"0","num_feature":"53","num_nodes":"11","size_leaf_vector":"0"}},{"base_weights":[2.6589504E-1,-4.077712E-1,2.2905855E0,-5.383069E-1,7.1052265E-1,2.1540384E-1,-5.781974E-1,1.4328845E0,-3.7230247E-1],"categories":[],"categories_nodes":[],"categories_segments":[],"categories_sizes":[],"default_left":[true,true,false,true,true,false,false,false,false],"id":67,"left_children":[1,3,-1,5,7,-1,-1,-1,-1],"loss_changes":[1.4490602E2,1.2499417E1,0E0,2.4475422E0,8.313554E0,0E0,0E0,0E0,0E0],"parents":[2147483647,0,0,1,1,3,3,4,4],"right_children":[2,4,-1,6,8,-1,-1,-1,-1],"split_conditions":[7.44385E-2,2.98355E-2,1.6034098E-2,-3.59781E1,6.86381E1,1.507827E-3,-4.047382E-3,1.0030191E-2,-2.6061174E-3],"split_indices":[5,3,0,37,30,0,0,0,0],"split_type":[0,0,0,0,0,0,0,0,0],"sum_hessian":[1.0286919E2,7.838552E1,2.4483665E1,7.112101E1,7.2645106E0,3.1325912E0,6.798842E1,3.9697142E0,3.2947967E0],"tree_param":{"num_deleted":"0","num_feature":"53","num_nodes":"9","size_leaf_vector":"0"}},{"base_weights":[-1.4474776E-1,1.06731E0,-5.7797694E-1,-4.1808063E-1,2.1542807E0],"categories":[],"categories_nodes":[],"categories_segments":[],"categories_sizes":[],"default_left":[true,true,false,false,false],"id":68,"left_children":[1,3,-1,-1,-1],"loss_changes":[4.9956173E1,4.2383453E1,0E0,0E0,0E0],"parents":[2147483647,0,0,1,1],"right_children":[2,4,-1,-1,-1],"split_conditions":[1.0972345E0,8.871732E-1,-4.0458385E-3,-2.9265645E-3,1.5079965E-2],"split_indices":[2,2,0,0,0],"split_type":[0,0,0,0,0],"sum_hessian":[9.078714E1,2.3134857E1,6.765228E1,1.0295868E1,1.2838989E1],"tree_param":{"num_deleted":"0","num_feature":"53","num_nodes":"5","size_leaf_vector":"0"}},{"base_weights":[-5.1186144E-2,2.0677743E0,-5.8005637E-1],"categories":[],"categories_nodes":[],"categories_segments":[],"categories_sizes":[],"default_left":[true,false,false],"id":69,"left_children":[1,-1,-1],"loss_changes":[1.1094183E2,0E0,0E0],"parents":[2147483647,0,0],"right_children":[2,-1,-1],"split_conditions":[-4.1491E-2,1.4474421E-2,-4.0603946E-3],"split_indices":[4,0,0],"split_type":[0,0,0],"sum_hessian":[9.485673E1,1.7784025E1,7.70727E1],"tree_param":{"num_deleted":"0","num_feature":"53","num_nodes":"3","size_leaf_vector":"0"}},{"base_weights":[1.0380813E-1,1.3618017E0,-5.2032197E-1,-4.2766815E-1,2.2605963E0,-1.7720827E-1,-5.750107E-1,-4.665378E-1,4.1691437E-1],"categories":[],"categories_nodes":[],"categories_segments":[],"categories_sizes":[],"default_left":[true,true,true,false,false,true,false,false,false],"id":70,"left_children":[1,3,5,-1,-1,7,-1,-1,-1],"loss_changes":[8.060061E1,5.6611744E1,1.088234E0,0E0,0E0,2.5131347E0,0E0,0E0,0E0],"parents":[2147483647,0,0,1,1,2,2,5,5],"right_children":[2,4,6,-1,-1,8,-1,-1,-1],"split_conditions":[-8.09613E0,2.016219E0,-4.18579E0,-2.9936773E-3,1.5824175E-2,1.208643E0,-4.025075E-3,-3.2657648E-3,2.9184008E-3],"split_indices":[46,2,16,0,0,2,0,0,0],"split_type":[0,0,0,0,0,0,0,0,0],"sum_hessian":[9.885116E1,3.199611E1,6.685505E1,1.1048087E1,2.0948025E1,1.0356929E1,5.649812E1,7.2538795E0,3.1030495E0],"tree_param":{"num_deleted":"0","num_feature":"53","num_nodes":"9","size_leaf_vector":"0"}},{"base_weights":[-5.8243275E-1],"categories":[],"categories_nodes":[],"categories_segments":[],"categories_sizes":[],"default_left":[false],"id":71,"left_children":[-1],"loss_changes":[0E0],"parents":[2147483647],"right_children":[-1],"split_conditions":[-4.0770294E-3],"split_indices":[0],"split_type":[0],"sum_hessian":[9.2831856E1],"tree_param":{"num_deleted":"0","num_feature":"53","num_nodes":"1","size_leaf_vector":"0"}},{"base_weights":[4.2906973E-1,1.8871503E0,-1.8181537E-1,2.2015188E0,-3.6806202E-1,1.0718981E0,-4.723526E-1,-1.744464E-1,1.9471467E0,4.087209E-1,-5.7244766E-1],"categories":[],"categories_nodes":[],"categories_segments":[],"categories_sizes":[],"default_left":[true,true,true,false,false,true,true,false,false,false,false],"id":72,"left_children":[1,3,5,-1,-1,7,9,-1,-1,-1,-1],"loss_changes":[8.6979126E1,2.2025131E1,2.654634E1,0E0,0E0,1.573359E1,5.609397E0,0E0,0E0,0E0,0E0],"parents":[2147483647,0,0,1,1,2,2,5,5,6,6],"right_children":[2,4,6,-1,-1,8,10,-1,-1,-1,-1],"split_conditions":[7.38135E-2,1.5049E4,8.871732E-1,1.5410632E-2,-2.5764343E-3,7.584274E-1,7.52255E-2,-1.2211249E-3,1.3630027E-2,2.8610465E-3,-4.0071337E-3],"split_indices":[7,28,2,0,0,2,7,0,0,0,0],"split_type":[0,0,0,0,0,0,0,0,0,0,0],"sum_hessian":[9.4879974E1,2.6780645E1,6.8099335E1,2.354603E1,3.2346144E0,1.180033E1,5.6299E1,5.528782E0,6.2715483E0,5.114311E0,5.118469E1],"tree_param":{"num_deleted":"0","num_feature":"53","num_nodes":"11","size_leaf_vector":"0"}},{"base_weights":[2.4772032E-1,-3.7347382E-1,2.2340102E0,4.5429906E-1,-5.757668E-1,1.027422E0,-4.4284907E-1,-2.0016529E-1,1.7052189E0],"categories":[],"categories_nodes":[],"categories_segments":[],"categories_sizes":[],"default_left":[true,true,false,true,false,true,false,false,false],"id":73,"left_children":[1,3,-1,5,-1,7,-1,-1,-1],"loss_changes":[1.23665955E2,1.3422343E1,0E0,9.263342E0,0E0,9.432252E0,0E0,0E0,0E0],"parents":[2147483647,0,0,1,1,3,3,5,5],"right_children":[2,4,-1,6,-1,8,-1,-1,-1],"split_conditions":[7.4548E-2,9.35E1,1.5638072E-2,3.7344948E1,-4.030368E-3,9.0013E-2,-3.0999435E-3,-1.401157E-3,1.1936532E-2],"split_indices":[5,51,0,30,0,7,0,0,0],"split_type":[0,0,0,0,0,0,0,0,0],"sum_hessian":[9.687355E1,7.503194E1,2.184161E1,1.42461E1,6.0785835E1,8.515652E0,5.7304497E0,3.5305982E0,4.985053E0],"tree_param":{"num_deleted":"0","num_feature":"53","num_nodes":"9","size_leaf_vector":"0"}},{"base_weights":[-5.9759695E-2,1.1483334E0,-5.7735676E-1,-5.0473267E-1,2.1896265E0],"categories":[],"categories_nodes":[],"categories_segments":[],"categories_sizes":[],"default_left":[true,true,false,false,false],"id":74,"left_children":[1,3,-1,-1,-1],"loss_changes":[6.1679585E1,5.319355E1,0E0,0E0,0E0],"parents":[2147483647,0,0,1,1],"right_children":[2,4,-1,-1,-1],"split_conditions":[1.0972345E0,8.871732E-1,-4.0414976E-3,-3.5331289E-3,1.5327386E-2],"split_indices":[2,2,0,0,0],"split_type":[0,0,0,0,0],"sum_hessian":[9.451858E1,2.7618551E1,6.6900024E1,1.1072068E1,1.6546484E1],"tree_param":{"num_deleted":"0","num_feature":"53","num_nodes":"5","size_leaf_vector":"0"}},{"base_weights":[-5.7275586E-2,-5.680855E-1,2.194004E0,-1.6763979E-1,-5.795368E-1],"categories":[],"categories_nodes":[],"categories_segments":[],"categories_sizes":[],"default_left":[true,true,false,false,false],"id":75,"left_children":[1,3,-1,-1,-1],"loss_changes":[1.15095505E2,1.7895317E-1,0E0,0E0,0E0],"parents":[2147483647,0,0,1,1],"right_children":[2,4,-1,-1,-1],"split_conditions":[4.574415E0,-1.511421E2,1.5358029E-2,-1.1734786E-3,-4.056758E-3],"split_indices":[2,1,0,0,0],"split_type":[0,0,0,0,0],"sum_hessian":[9.591749E1,7.9397675E1,1.6519817E1,3.0769641E0,7.632071E1],"tree_param":{"num_deleted":"0","num_feature":"53","num_nodes":"5","size_leaf_vector":"0"}},{"base_weights":[6.320545E-2,1.3130279E0,-5.0674134E-1,-4.198747E-1,2.2082295E0,-5.62217E-1,4.1657135E-1,-5.762379E-1,-1.5906557E-1],"categories":[],"categories_nodes":[],"categories_segments":[],"categories_sizes":[],"default_left":[true,true,true,false,false,true,false,false,false],"id":76,"left_children":[1,3,5,-1,-1,7,-1,-1,-1],"loss_changes":[7.221928E1,5.1069427E1,4.0432014E0,0E0,0E0,1.9363022E-1,0E0,0E0,0E0],"parents":[2147483647,0,0,1,1,2,2,5,5],"right_children":[2,4,6,-1,-1,8,-1,-1,-1],"split_conditions":[-8.094725E0,2.073844E0,1.065E2,-2.939123E-3,1.5457607E-2,3.17278E0,2.9159996E-3,-4.0336656E-3,-1.113459E-3],"split_indices":[46,2,29,0,0,42,0,0,0],"split_type":[0,0,0,0,0,0,0,0,0],"sum_hessian":[9.751612E1,2.9725107E1,6.7791016E1,1.0486881E1,1.9238226E1,6.46866E1,3.1044118E0,6.168272E1,3.0038812E0],"tree_param":{"num_deleted":"0","num_feature":"53","num_nodes":"9","size_leaf_vector":"0"}},{"base_weights":[-5.818701E-1],"categories":[],"categories_nodes":[],"categories_segments":[],"categories_sizes":[],"default_left":[false],"id":77,"left_children":[-1],"loss_changes":[0E0],"parents":[2147483647],"right_children":[-1],"split_conditions":[-4.073091E-3],"split_indices":[0],"split_type":[0],"sum_hessian":[9.174498E1],"tree_param":{"num_deleted":"0","num_feature":"53","num_nodes":"1","size_leaf_vector":"0"}},{"base_weights":[3.888761E-1,2.1779332E0,-1.4142145E-1,-4.828373E-1,4.8314223E-1,1.7696841E-1,-5.3305525E-1,1.3144222E0,-2.0696905E-1,-1.1634439E-1,-5.6924814E-1,1.7439501E0,-1.6037484E-1,7.6308334E-1,-5.1633805E-1],"categories":[],"categories_nodes":[],"categories_segments":[],"categories_sizes":[],"default_left":[true,false,true,true,true,false,true,true,true,false,false,false,false,false,false],"id":78,"left_children":[1,-1,3,5,7,-1,9,11,13,-1,-1,-1,-1,-1,-1],"loss_changes":[1.0096877E2,0E0,1.826517E1,2.009985E0,1.8041777E1,0E0,6.454544E-1,9.495998E0,6.3079863E0,0E0,0E0,0E0,0E0,0E0,0E0],"parents":[2147483647,0,0,2,2,3,3,4,4,6,6,7,7,8,8],"right_children":[2,-1,4,6,8,-1,10,12,14,-1,-1,-1,-1,-1,-1],"split_conditions":[7.2084E-2,1.5245533E-2,2.63794E0,1.1373E4,3.9E1,1.2387789E-3,-8.13141E-2,3.387805E1,8.85E1,-8.144108E-4,-3.984737E-3,1.22076515E-2,-1.1226239E-3,5.3415834E-3,-3.6143665E-3],"split_indices":[7,0,32,28,0,0,48,35,51,0,0,0,0,0,0],"split_type":[0,0,0,0,0,0,0,0,0,0,0,0,0,0,0],"sum_hessian":[1.037756E2,2.2306496E1,8.14691E1,5.2968094E1,2.8501005E1,3.3892505E0,4.9578842E1,1.2107499E1,1.6393507E1,4.6355925E0,4.494325E1,9.09393E0,3.0135694E0,3.2547638E0,1.3138742E1],"tree_param":{"num_deleted":"0","num_feature":"53","num_nodes":"15","size_leaf_vector":"0"}},{"base_weights":[2.4935415E-1,-5.772873E-1,1.8135077E0,2.216244E0,-4.309667E-1],"categories":[],"categories_nodes":[],"categories_segments":[],"categories_sizes":[],"default_left":[true,false,true,false,false],"id":79,"left_children":[1,-1,3,-1,-1],"loss_changes":[1.3565796E2,0E0,3.4631996E1,0E0,0E0],"parents":[2147483647,0,0,2,2],"right_children":[2,-1,4,-1,-1],"split_conditions":[1.03825E-2,-4.0410114E-3,9.14357E1,1.5513709E-2,-3.016767E-3],"split_indices":[4,0,30,0,0],"split_type":[0,0,0,0,0],"sum_hessian":[1.0129833E2,6.709897E1,3.4199364E1,2.9017735E1,5.1816297E0],"tree_param":{"num_deleted":"0","num_feature":"53","num_nodes":"5","size_leaf_vector":"0"}},{"base_weights":[-9.994597E-2,1.0962148E0,-5.7754415E-1,-4.3129674E-1,2.1382434E0],"categories":[],"categories_nodes":[],"categories_segments":[],"categories_sizes":[],"default_left":[true,true,false,false,false],"id":80,"left_children":[1,3,-1,-1,-1],"loss_changes":[5.7457306E1,4.7616306E1,0E0,0E0,0E0],"parents":[2147483647,0,0,1,1],"right_children":[2,4,-1,-1,-1],"split_conditions":[1.097875E0,8.871732E-1,-4.0428094E-3,-3.0190772E-3,1.4967704E-2],"split_indices":[2,2,0,0,0],"split_type":[0,0,0,0,0],"sum_hessian":[9.635924E1,2.6756401E1,6.960284E1,1.1325919E1,1.5430483E1],"tree_param":{"num_deleted":"0","num_feature":"53","num_nodes":"5","size_leaf_vector":"0"}},{"base_weights":[-6.352317E-2,-5.5528134E-1,2.154951E0,2.9519388E-2,-5.790696E-1],"categories":[],"categories_nodes":[],"categories_segments":[],"categories_sizes":[],"default_left":[true,true,false,false,false],"id":81,"left_children":[1,3,-1,-1,-1],"loss_changes":[1.0843949E2,1.1632099E0,0E0,0E0,0E0],"parents":[2147483647,0,0,1,1],"right_children":[2,4,-1,-1,-1],"split_conditions":[4.574415E0,-1.4107256E2,1.5084658E-2,2.0663573E-4,-4.0534874E-3],"split_indices":[2,1,0,0,0],"split_type":[0,0,0,0,0],"sum_hessian":[9.520519E1,7.915803E1,1.6047165E1,3.07526E0,7.608276E1],"tree_param":{"num_deleted":"0","num_feature":"53","num_nodes":"5","size_leaf_vector":"0"}},{"base_weights":[9.213053E-2,1.3080747E0,-5.067071E-1,-4.297475E-1,2.1918159E0,4.120241E-1,-5.6186163E-1,-5.757858E-1,-1.7848521E-1],"categories":[],"categories_nodes":[],"categories_segments":[],"categories_sizes":[],"default_left":[true,true,true,false,false,false,true,false,false],"id":82,"left_children":[1,3,5,-1,-1,-1,7,-1,-1],"loss_changes":[7.5947586E1,5.4676342E1,4.015438E0,0E0,0E0,0E0,1.5202522E-1,0E0,0E0],"parents":[2147483647,0,0,1,1,2,2,6,6],"right_children":[2,4,6,-1,-1,-1,8,-1,-1],"split_conditions":[-8.085225E0,3.926E3,-4.969241E1,-3.0082325E-3,1.53427115E-2,2.8841689E-3,4.051581E1,-4.030501E-3,-1.2493966E-3],"split_indices":[46,27,1,0,0,0,1,0,0],"split_type":[0,0,0,0,0,0,0,0,0],"sum_hessian":[1.0048115E2,3.2374924E1,6.810623E1,1.126009E1,2.1114832E1,3.124216E0,6.498201E1,6.1736008E1,3.246006E0],"tree_param":{"num_deleted":"0","num_feature":"53","num_nodes":"9","size_leaf_vector":"0"}},{"base_weights":[-5.811657E-1],"categories":[],"categories_nodes":[],"categories_segments":[],"categories_sizes":[],"default_left":[false],"id":83,"left_children":[-1],"loss_changes":[0E0],"parents":[2147483647],"right_children":[-1],"split_conditions":[-4.06816E-3],"split_indices":[0],"split_type":[0],"sum_hessian":[9.008874E1],"tree_param":{"num_deleted":"0","num_feature":"53","num_nodes":"1","size_leaf_vector":"0"}},{"base_weights":[3.677634E-1,2.1586387E0,-1.7148791E-1,-3.865208E-1,1.8336498E0,9.913685E-1,-5.5895936E-1,3.9254904E-2,1.5253004E0,-5.7408947E-1,-1.7743376E-1],"categories":[],"categories_nodes":[],"categories_segments":[],"categories_sizes":[],"default_left":[true,false,true,true,false,true,true,false,false,false,false],"id":84,"left_children":[1,-1,3,5,-1,7,9,-1,-1,-1,-1],"loss_changes":[9.020945E1,0E0,3.2917282E1,1.7177818E1,0E0,4.071022E0,1.506424E-1,0E0,0E0,0E0,0E0],"parents":[2147483647,0,0,2,2,3,3,5,5,6,6],"right_children":[2,-1,4,6,-1,8,10,-1,-1,-1,-1],"split_conditions":[7.21135E-2,1.5110471E-2,6.778535E1,1.1244E4,1.2835548E-2,1.3265541E0,4.4615948E-1,2.7478434E-4,1.0677103E-2,-4.018626E-3,-1.2420363E-3],"split_indices":[7,0,30,28,0,2,49,0,0,0,0],"split_type":[0,0,0,0,0,0,0,0,0,0,0],"sum_hessian":[9.0643814E1,1.9587355E1,7.105646E1,6.563244E1,5.424017E0,6.243649E0,5.9388794E1,3.014751E0,3.2288983E0,5.6152515E1,3.2362766E0],"tree_param":{"num_deleted":"0","num_feature":"53","num_nodes":"11","size_leaf_vector":"0"}},{"base_weights":[2.0190816E-1,-5.7694715E-1,1.789329E0,2.1663468E0,-4.176604E-1],"categories":[],"categories_nodes":[],"categories_segments":[],"categories_sizes":[],"default_left":[true,false,true,false,false],"id":85,"left_children":[1,-1,3,-1,-1],"loss_changes":[1.2810353E2,0E0,3.0134918E1,0E0,0E0],"parents":[2147483647,0,0,2,2],"right_children":[2,-1,4,-1,-1],"split_conditions":[8.9335E-3,-4.03863E-3,9.14357E1,1.5164428E-2,-2.9236227E-3],"split_indices":[4,0,30,0,0],"split_type":[0,0,0,0,0],"sum_hessian":[9.994255E1,6.790071E1,3.2041836E1,2.7398254E1,4.6435833E0],"tree_param":{"num_deleted":"0","num_feature":"53","num_nodes":"5","size_leaf_vector":"0"}},{"base_weights":[-3.156869E-2,-5.756084E-1,9.370712E-1,2.155138E0,-5.2984625E-1],"categories":[],"categories_nodes":[],"categories_segments":[],"categories_sizes":[],"default_left":[true,false,true,false,false],"id":86,"left_children":[1,-1,3,-1,-1],"loss_changes":[5.3997734E1,0E0,6.817616E1,0E0,0E0],"parents":[2147483647,0,0,2,2],"right_children":[2,-1,4,-1,-1],"split_conditions":[2.5859501E-2,-4.0292586E-3,8.954E-3,1.5085966E-2,-3.708924E-3],"split_indices":[3,0,4,0,0],"split_type":[0,0,0,0,0],"sum_hessian":[9.841957E1,6.354233E1,3.487724E1,1.8542227E1,1.633501E1],"tree_param":{"num_deleted":"0","num_feature":"53","num_nodes":"5","size_leaf_vector":"0"}},{"base_weights":[-3.581726E-2,-5.7906777E-1,2.146514E0],"categories":[],"categories_nodes":[],"categories_segments":[],"categories_sizes":[],"default_left":[true,false,false],"id":87,"left_children":[1,-1,-1],"loss_changes":[1.1824539E2,0E0,0E0],"parents":[2147483647,0,0],"right_children":[2,-1,-1],"split_conditions":[4.6121917E0,-4.0534744E-3,1.5025598E-2],"split_indices":[2,0,0],"split_type":[0,0,0],"sum_hessian":[9.564176E1,7.775533E1,1.7886423E1],"tree_param":{"num_deleted":"0","num_feature":"53","num_nodes":"3","size_leaf_vector":"0"}},{"base_weights":[9.9017985E-2,1.258009E0,-5.0611216E-1,-4.4178265E-1,2.1663778E0,-5.466218E-1,2.290898E-1,-1.742524E-1,-4.876817E-1,3.4714635E-2,-5.7541174E-1],"categories":[],"categories_nodes":[],"categories_segments":[],"categories_sizes":[],"default_left":[true,true,true,true,false,true,false,true,true,false,false],"id":88,"left_children":[1,3,5,-1,-1,9,-1,-1,-1,-1,-1],"loss_changes":[7.439261E1,5.8018127E1,2.3328762E0,5.8357716E-3,0E0,1.1589565E0,0E0,0E0,0E0,0E0,0E0],"parents":[2147483647,0,0,1,1,2,2,3,3,5,5],"right_children":[2,4,6,-1,-1,10,-1,-1,-1,-1,-1],"split_conditions":[-8.09613E0,1.4761E4,7.9842246E-1,-3.0924787E-3,1.5164645E-2,-4.6623207E1,1.6036286E-3,-1.2197669E-3,-3.413772E-3,2.4300246E-4,-4.027882E-3],"split_indices":[46,28,34,16,0,1,0,2147483647,2147483647,0,0],"split_type":[0,0,0,0,0,0,0,0,0,0,0],"sum_hessian":[1.0225639E2,3.433589E1,6.79205E1,1.23162775E1,2.2019613E1,6.485973E1,3.0607665E0,3.2084055E0,9.107872E0,3.0411067E0,6.181863E1],"tree_param":{"num_deleted":"2","num_feature":"53","num_nodes":"11","size_leaf_vector":"0"}},{"base_weights":[-5.804716E-1],"categories":[],"categories_nodes":[],"categories_segments":[],"categories_sizes":[],"default_left":[false],"id":89,"left_children":[-1],"loss_changes":[0E0],"parents":[2147483647],"right_children":[-1],"split_conditions":[-4.0633013E-3],"split_indices":[0],"split_type":[0],"sum_hessian":[8.796674E1],"tree_param":{"num_deleted":"0","num_feature":"53","num_nodes":"1","size_leaf_vector":"0"}},{"base_weights":[3.7487137E-1,-3.372355E-1,1.4515151E0,5.412687E-1,-5.5118877E-1,2.0729165E0,-1.9714272E-1,9.9558634E-1,-3.897184E-1,-5.6887615E-1,-1.8022685E-1,6.1952287E-1,2.1921575E0,-4.7260797E-1,3.9630088E-1,1.2998613E0,2.233792E-1],"categories":[],"categories_nodes":[],"categories_segments":[],"categories_sizes":[],"default_left":[true,true,true,true,true,true,true,true,false,false,false,false,false,false,false,false,false],"id":90,"left_children":[1,3,5,7,9,11,13,15,-1,-1,-1,-1,-1,-1,-1,-1,-1],"loss_changes":[7.847327E1,1.2336758E1,4.2427666E1,6.376793E0,1.3101292E-1,2.4260406E0,2.490665E0,1.6424341E0,0E0,0E0,0E0,0E0,0E0,0E0,0E0,0E0,0E0],"parents":[2147483647,0,0,1,1,2,2,3,3,4,4,5,5,6,6,7,7],"right_children":[2,4,6,8,10,12,14,16,-1,-1,-1,-1,-1,-1,-1,-1,-1],"split_conditions":[5.68457E0,9.35E1,6.63605E-2,-2.90355E0,4.43457E0,4.05227E-1,1.3146E4,6.7370504E-2,-2.728029E-3,-3.982133E-3,-1.261588E-3,4.3366603E-3,1.5345103E-2,-3.308256E-3,2.7741063E-3,9.099029E-3,1.5636544E-3],"split_indices":[18,51,5,36,18,33,28,5,0,0,0,0,0,0,0,0,0],"split_type":[0,0,0,0,0,0,0,0,0,0,0,0,0,0,0,0,0],"sum_hessian":[9.907701E1,6.0460888E1,3.861612E1,1.1241785E1,4.9219105E1,2.7671633E1,1.0944487E1,7.461722E0,3.7800636E0,4.5960674E1,3.258431E0,3.037654E0,2.4633978E1,7.75295E0,3.191537E0,4.372285E0,3.0894368E0],"tree_param":{"num_deleted":"0","num_feature":"53","num_nodes":"17","size_leaf_vector":"0"}},{"base_weights":[2.2160414E-1,-5.6204325E-1,1.774927E0,-1.5981616E-1,-5.7550985E-1,2.1659284E0,-4.2404538E-1],"categories":[],"categories_nodes":[],"categories_segments":[],"categories_sizes":[],"default_left":[true,true,true,false,false,false,false],"id":91,"left_children":[1,3,5,-1,-1,-1,-1],"loss_changes":[1.2597198E2,1.9096184E-1,3.161502E1,0E0,0E0,0E0,0E0],"parents":[2147483647,0,0,1,1,2,2],"right_children":[2,4,6,-1,-1,-1,-1],"split_conditions":[1.02965E-2,-1.65E1,9.14357E1,-1.1187132E-3,-4.028569E-3,1.5161499E-2,-2.9683178E-3],"split_indices":[4,22,30,0,0,0,0],"split_type":[0,0,0,0,0,0,0],"sum_hessian":[9.984928E1,6.7215546E1,3.2633736E1,3.0111797E0,6.420437E1,2.7732628E1,4.9011083E0],"tree_param":{"num_deleted":"0","num_feature":"53","num_nodes":"7","size_leaf_vector":"0"}},{"base_weights":[-7.030409E-2,1.1040112E0,-5.7568866E-1,-5.010642E-1,2.0900736E0],"categories":[],"categories_nodes":[],"categories_segments":[],"categories_sizes":[],"default_left":[true,true,false,false,false],"id":92,"left_children":[1,3,-1,-1,-1],"loss_changes":[5.7417816E1,4.823073E1,0E0,0E0,0E0],"parents":[2147483647,0,0,1,1],"right_children":[2,4,-1,-1,-1],"split_conditions":[1.0972345E0,8.871732E-1,-4.0298207E-3,-3.5074493E-3,1.4630515E-2],"split_indices":[2,2,0,0,0],"split_type":[0,0,0,0,0],"sum_hessian":[9.260572E1,2.7150238E1,6.545548E1,1.0706427E1,1.6443811E1],"tree_param":{"num_deleted":"0","num_feature":"53","num_nodes":"5","size_leaf_vector":"0"}},{"base_weights":[-3.9360993E-2,2.0377727E0,-5.778845E-1],"categories":[],"categories_nodes":[],"categories_segments":[],"categories_sizes":[],"default_left":[true,false,false],"id":93,"left_children":[1,-1,-1],"loss_changes":[1.0829192E2,0E0,0E0],"parents":[2147483647,0,0],"right_children":[2,-1,-1],"split_conditions":[-3.3999968E-5,1.4264409E-2,-4.0451917E-3],"split_indices":[3,0,0],"split_type":[0,0,0],"sum_hessian":[9.270599E1,1.7940369E1,7.4765625E1],"tree_param":{"num_deleted":"0","num_feature":"53","num_nodes":"3","size_leaf_vector":"0"}},{"base_weights":[5.430678E-2,1.115035E0,-5.742198E-1,-5.174429E-1,2.1521082E0],"categories":[],"categories_nodes":[],"categories_segments":[],"categories_sizes":[],"default_left":[true,true,false,false,false],"id":94,"left_children":[1,3,-1,-1,-1],"loss_changes":[6.440255E1,6.3018223E1,0E0,0E0,0E0],"parents":[2147483647,0,0,1,1],"right_children":[2,4,-1,-1,-1],"split_conditions":[-1.41695E-2,2.05E1,-4.019539E-3,-3.6221002E-3,1.5064758E-2],"split_indices":[4,0,0,0,0],"split_type":[0,0,0,0,0],"sum_hessian":[9.267883E1,3.3907314E1,5.877152E1,1.3561689E1,2.0345625E1],"tree_param":{"num_deleted":"0","num_feature":"53","num_nodes":"5","size_leaf_vector":"0"}},{"base_weights":[-5.803861E-1],"categories":[],"categories_nodes":[],"categories_segments":[],"categories_sizes":[],"default_left":[false],"id":95,"left_children":[-1],"loss_changes":[0E0],"parents":[2147483647],"right_children":[-1],"split_conditions":[-4.062703E-3],"split_indices":[0],"split_type":[0],"sum_hessian":[9.057888E1],"tree_param":{"num_deleted":"0","num_feature":"53","num_nodes":"1","size_leaf_vector":"0"}},{"base_weights":[3.5820732E-1,1.706551E0,-3.1764543E-1,2.1391313E0,-4.3355024E-1,-5.7497466E-1,1.8306315E0],"categories":[],"categories_nodes":[],"categories_segments":[],"categories_sizes":[],"default_left":[true,true,true,false,false,false,false],"id":96,"left_children":[1,3,5,-1,-1,-1,-1],"loss_changes":[9.283676E1,3.326731E1,4.011328E1,0E0,0E0,0E0,0E0],"parents":[2147483647,0,0,1,1,2,2],"right_children":[2,4,6,-1,-1,-1,-1],"split_conditions":[7.5189E-2,1.491E4,9.14055E1,1.497392E-2,-3.0348517E-3,-4.0248227E-3,1.2814421E-2],"split_indices":[7,28,30,0,0,0,0],"split_type":[0,0,0,0,0,0,0],"sum_hessian":[9.868523E1,3.193133E1,6.675389E1,2.656303E1,5.3683004E0,6.092122E1,5.832677E0],"tree_param":{"num_deleted":"0","num_feature":"53","num_nodes":"7","size_leaf_vector":"0"}},{"base_weights":[1.9010122E-1,-3.6784837E-1,2.0972834E0,1.2634538E0,-5.4993546E-1,4.2402783E-1,1.5671421E0,3.0294403E-2,-5.7622457E-1],"categories":[],"categories_nodes":[],"categories_segments":[],"categories_sizes":[],"default_left":[true,true,false,true,true,false,false,false,false],"id":97,"left_children":[1,3,-1,5,7,-1,-1,-1,-1],"loss_changes":[1.0885566E2,2.5070591E1,0E0,8.6631966E-1,1.150135E0,0E0,0E0,0E0,0E0],"parents":[2147483647,0,0,1,1,3,3,4,4],"right_children":[2,4,-1,6,8,-1,-1,-1,-1],"split_conditions":[7.45515E-2,7.5906765E-1,1.4680984E-2,3.9033252E-1,-8.4367695E0,2.968195E-3,1.09699955E-2,2.1206083E-4,-4.033572E-3],"split_indices":[5,2,0,43,17,0,0,0,0],"split_type":[0,0,0,0,0,0,0,0,0],"sum_hessian":[9.884722E1,7.7723366E1,2.1123861E1,6.611757E0,7.11116E1,3.0297456E0,3.5820112E0,3.0690665E0,6.804254E1],"tree_param":{"num_deleted":"0","num_feature":"53","num_nodes":"9","size_leaf_vector":"0"}},{"base_weights":[-1.1794557E-1,1.0689152E0,-5.7600003E-1,-4.1896966E-1,2.0370197E0],"categories":[],"categories_nodes":[],"categories_segments":[],"categories_sizes":[],"default_left":[true,true,false,false,false],"id":98,"left_children":[1,3,-1,-1,-1],"loss_changes":[5.3305595E1,4.1136887E1,0E0,0E0,0E0],"parents":[2147483647,0,0,1,1],"right_children":[2,4,-1,-1,-1],"split_conditions":[1.0805869E0,8.8653284E-1,-4.0320004E-3,-2.9327876E-3,1.4259138E-2],"split_indices":[2,2,0,0,0],"split_type":[0,0,0,0,0],"sum_hessian":[9.378681E1,2.5373798E1,6.841301E1,1.0449052E1,1.49247465E1],"tree_param":{"num_deleted":"0","num_feature":"53","num_nodes":"5","size_leaf_vector":"0"}},{"base_weights":[-5.376049E-2,-5.6630886E-1,2.0806468E0,-1.6223639E-1,-5.777901E-1],"categories":[],"categories_nodes":[],"categories_segments":[],"categories_sizes":[],"default_left":[true,true,false,false,false],"id":99,"left_children":[1,3,-1,-1,-1],"loss_changes":[1.10668396E2,1.9019127E-1,0E0,0E0,0E0],"parents":[2147483647,0,0,1,1],"right_children":[2,4,-1,-1,-1],"split_conditions":[4.5827384E0,-5.65E1,1.4564528E-2,-1.1356547E-3,-4.044531E-3],"split_indices":[2,25,0,0,0],"split_type":[0,0,0,0,0],"sum_hessian":[9.70065E1,7.940729E1,1.7599209E1,3.030001E0,7.637729E1],"tree_param":{"num_deleted":"0","num_feature":"53","num_nodes":"5","size_leaf_vector":"0"}},{"base_weights":[-2.4526956E-2,1.1008213E0,-5.3242713E-1,1.9263201E0,-4.9601954E-1,2.209126E-1,-5.74997E-1],"categories":[],"categories_nodes":[],"categories_segments":[],"categories_sizes":[],"default_left":[true,true,true,false,false,false,false],"id":100,"left_children":[1,3,5,-1,-1,-1,-1],"loss_changes":[5.678261E1,4.265408E1,2.4471817E0,0E0,0E0,0E0,0E0],"parents":[2147483647,0,0,1,1,2,2],"right_children":[2,4,6,-1,-1,-1,-1],"split_conditions":[-8.09613E0,-1.3881E-2,-5.0689156E1,1.34842405E-2,-3.4721368E-3,1.5463883E-3,-4.024979E-3],"split_indices":[46,4,1,0,0,0,0],"split_type":[0,0,0,0,0,0,0],"sum_hessian":[9.529504E1,2.8908356E1,6.638668E1,1.8784767E1,1.01235895E1,3.102598E0,6.3284084E1],"tree_param":{"num_deleted":"0","num_feature":"53","num_nodes":"7","size_leaf_vector":"0"}},{"base_weights":[-5.794919E-1],"categories":[],"categories_nodes":[],"categories_segments":[],"categories_sizes":[],"default_left":[false],"id":101,"left_children":[-1],"loss_changes":[0E0],"parents":[2147483647],"right_children":[-1],"split_conditions":[-4.0564435E-3],"split_indices":[0],"split_type":[0],"sum_hessian":[8.7375854E1],"tree_param":{"num_deleted":"0","num_feature":"53","num_nodes":"1","size_leaf_vector":"0"}},{"base_weights":[2.6197922E-1,2.01949E0,-2.263286E-1,-4.6532008E-1,6.789136E-1,2.8766644E-1,-5.7179165E-1,-2.6643422E-1,1.4868113E0,-3.9021558E-1,9.0865314E-1,2.8796086E-2,-4.1356775E-1],"categories":[],"categories_nodes":[],"categories_segments":[],"categories_sizes":[],"default_left":[true,false,true,true,true,true,false,true,false,false,false,false,false],"id":102,"left_children":[1,-1,3,5,7,9,-1,11,-1,-1,-1,-1,-1],"loss_changes":[8.510895E1,0E0,1.76307E1,5.4077168E0,1.394742E1,4.5728097E0,0E0,4.4226605E-1,0E0,0E0,0E0,0E0,0E0],"parents":[2147483647,0,0,2,2,3,3,4,4,5,5,7,7],"right_children":[2,-1,4,6,8,10,-1,12,-1,-1,-1,-1,-1],"split_conditions":[7.20335E-2,1.4136431E-2,6.93457E0,8.95E1,2.5293005E-1,5.67405E-2,-4.002542E-3,-1.5E0,1.040768E-2,-2.731509E-3,6.3605723E-3,2.015726E-4,-2.8949743E-3],"split_indices":[7,0,18,51,16,8,0,19,0,0,0,0,0],"split_type":[0,0,0,0,0,0,0,0,0,0,0,0,0],"sum_hessian":[9.610556E1,1.9532623E1,7.657294E1,6.1348392E1,1.5224544E1,7.178326E0,5.4170067E1,7.633158E0,7.591385E0,3.7872858E0,3.3910403E0,3.0738688E0,4.5592895E0],"tree_param":{"num_deleted":"0","num_feature":"53","num_nodes":"13","size_leaf_vector":"0"}},{"base_weights":[2.1847178E-1,-3.526644E-1,2.0732055E0,1.3181589E0,-5.76131E-1,2.2535597E-1,1.7337143E0],"categories":[],"categories_nodes":[],"categories_segments":[],"categories_sizes":[],"default_left":[true,true,false,true,false,false,false],"id":103,"left_children":[1,3,-1,5,-1,-1,-1],"loss_changes":[1.0833769E2,3.0958462E1,0E0,3.7188454E0,0E0,0E0,0E0],"parents":[2147483647,0,0,1,1,3,3],"right_children":[2,4,-1,6,-1,-1,-1],"split_conditions":[7.45965E-2,7.584274E-1,1.4512438E-2,-1.9029789E1,-4.032917E-3,1.5774919E-3,1.2136001E-2],"split_indices":[5,2,0,1,0,0,0],"split_type":[0,0,0,0,0,0,0],"sum_hessian":[9.889196E1,7.684764E1,2.2044315E1,7.9098225E0,6.893782E1,3.0289838E0,4.880839E0],"tree_param":{"num_deleted":"0","num_feature":"53","num_nodes":"7","size_leaf_vector":"0"}},{"base_weights":[-6.0219906E-2,-5.751474E-1,1.0579624E0,2.0563385E0,-5.0840235E-1],"categories":[],"categories_nodes":[],"categories_segments":[],"categories_sizes":[],"default_left":[true,false,true,false,false],"id":104,"left_children":[1,-1,3,-1,-1],"loss_changes":[5.7829594E1,0E0,5.1673485E1,0E0,0E0],"parents":[2147483647,0,0,2,2],"right_children":[2,-1,4,-1,-1],"split_conditions":[2.5859501E-2,-4.026032E-3,8.954E-3,1.439437E-2,-3.5588166E-3],"split_indices":[3,0,4,0,0],"split_type":[0,0,0,0,0],"sum_hessian":[9.632288E1,6.6616844E1,2.9706043E1,1.7760294E1,1.1945751E1],"tree_param":{"num_deleted":"0","num_feature":"53","num_nodes":"5","size_leaf_vector":"0"}},{"base_weights":[-6.6875085E-2,1.9458255E0,-5.77617E-1],"categories":[],"categories_nodes":[],"categories_segments":[],"categories_sizes":[],"default_left":[true,false,false],"id":105,"left_children":[1,-1,-1],"loss_changes":[1.0269269E2,0E0,0E0],"parents":[2147483647,0,0],"right_children":[2,-1,-1],"split_conditions":[-3.3999968E-5,1.3620779E-2,-4.0433193E-3],"split_indices":[3,0,0],"split_type":[0,0,0],"sum_hessian":[9.571177E1,1.8234552E1,7.747721E1],"tree_param":{"num_deleted":"0","num_feature":"53","num_nodes":"3","size_leaf_vector":"0"}},{"base_weights":[1.945885E-2,-5.7427734E-1,1.0929483E0,-5.1349986E-1,2.076393E0],"categories":[],"categories_nodes":[],"categories_segments":[],"categories_sizes":[],"default_left":[true,false,true,false,false],"id":106,"left_children":[1,-1,3,-1,-1],"loss_changes":[6.28984E1,0E0,5.7634583E1,0E0,0E0],"parents":[2147483647,0,0,2,2],"right_children":[2,-1,4,-1,-1],"split_conditions":[2.0975344E0,-4.0199417E-3,2.05E1,-3.594499E-3,1.4534751E-2],"split_indices":[2,0,0,0,0],"split_type":[0,0,0,0,0],"sum_hessian":[9.471483E1,6.1583626E1,3.3131207E1,1.2943621E1,2.0187584E1],"tree_param":{"num_deleted":"0","num_feature":"53","num_nodes":"5","size_leaf_vector":"0"}},{"base_weights":[-5.7987034E-1],"categories":[],"categories_nodes":[],"categories_segments":[],"categories_sizes":[],"default_left":[false],"id":107,"left_children":[-1],"loss_changes":[0E0],"parents":[2147483647],"right_children":[-1],"split_conditions":[-4.0590926E-3],"split_indices":[0],"split_type":[0],"sum_hessian":[9.31462E1],"tree_param":{"num_deleted":"0","num_feature":"53","num_nodes":"1","size_leaf_vector":"0"}},{"base_weights":[3.4643593E-1,1.7927867E0,-2.8104502E-1,-8.249593E-2,2.0860095E0,-5.1636183E-1,1.7080407E0,1.09709635E-1,-5.584462E-1,-1.602536E-1,-5.73043E-1],"categories":[],"categories_nodes":[],"categories_segments":[],"categories_sizes":[],"default_left":[true,true,true,false,false,true,false,false,true,false,false],"id":108,"left_children":[1,3,5,-1,-1,7,-1,-1,9,-1,-1],"loss_changes":[9.435232E1,1.7605438E1,3.6148636E1,0E0,0E0,1.8937855E0,0E0,0E0,1.8437195E-1,0E0,0E0],"parents":[2147483647,0,0,1,1,2,2,5,5,8,8],"right_children":[2,4,6,-1,-1,8,-1,-1,10,-1,-1],"split_conditions":[7.38135E-2,5.1500043E-5,9.14055E1,-5.774715E-4,1.4602067E-2,7.5193E-2,1.1956286E-2,7.679675E-4,8.75E1,-1.1217752E-3,-4.011301E-3],"split_indices":[7,3,30,0,0,7,0,0,51,0,0],"split_type":[0,0,0,0,0,0,0,0,0,0,0],"sum_hessian":[1.0085254E2,2.9391216E1,7.146133E1,4.168598E0,2.5222618E1,6.522567E1,6.235653E0,3.905874E0,6.1319798E1,3.015513E0,5.8304287E1],"tree_param":{"num_deleted":"0","num_feature":"53","num_nodes":"11","size_leaf_vector":"0"}},{"base_weights":[1.9878593E-1,-5.747729E-1,1.6810054E0,2.0730784E0,-4.2972994E-1],"categories":[],"categories_nodes":[],"categories_segments":[],"categories_sizes":[],"default_left":[true,false,true,false,false],"id":109,"left_children":[1,-1,3,-1,-1],"loss_changes":[1.1754145E2,0E0,3.0817787E1,0E0,0E0],"parents":[2147483647,0,0,2,2],"right_children":[2,-1,4,-1,-1],"split_conditions":[1.04025E-2,-4.0234104E-3,6.544555E1,1.4511549E-2,-3.0081098E-3],"split_indices":[4,0,30,0,0],"split_type":[0,0,0,0,0],"sum_hessian":[9.882913E1,6.5742874E1,3.3086254E1,2.7933279E1,5.152976E0],"tree_param":{"num_deleted":"0","num_feature":"53","num_nodes":"5","size_leaf_vector":"0"}},{"base_weights":[-1.050998E-1,1.001463E0,-5.7454634E-1,-5.033432E-1,1.9935757E0],"categories":[],"categories_nodes":[],"categories_segments":[],"categories_sizes":[],"default_left":[true,true,false,false,false],"id":110,"left_children":[1,3,-1,-1,-1],"loss_changes":[5.0604137E1,4.543072E1,0E0,0E0,0E0],"parents":[2147483647,0,0,1,1],"right_children":[2,4,-1,-1,-1],"split_conditions":[1.097875E0,8.871732E-1,-4.0218243E-3,-3.5234026E-3,1.3955031E-2],"split_indices":[2,2,0,0,0],"split_type":[0,0,0,0,0],"sum_hessian":[9.319927E1,2.7086159E1,6.611311E1,1.115377E1,1.5932388E1],"tree_param":{"num_deleted":"0","num_feature":"53","num_nodes":"5","size_leaf_vector":"0"}},{"base_weights":[-2.728979E-4,-5.778476E-1,2.0585353E0],"categories":[],"categories_nodes":[],"categories_segments":[],"categories_sizes":[],"default_left":[true,false,false],"id":111,"left_children":[1,-1,-1],"loss_changes":[1.2516185E2,0E0,0E0],"parents":[2147483647,0,0],"right_children":[2,-1,-1],"split_conditions":[4.592343E0,-4.0449332E-3,1.4409748E-2],"split_indices":[2,0,0],"split_type":[0,0,0],"sum_hessian":[1.0125558E2,8.019614E1,2.1059437E1],"tree_param":{"num_deleted":"0","num_feature":"53","num_nodes":"3","size_leaf_vector":"0"}},{"base_weights":[2.0606272E-2,1.2047302E0,-5.176608E-1,-4.9222896E-1,2.0232239E0,-5.593248E-1,2.2748491E-1,-1.589775E-1,-5.7340324E-1],"categories":[],"categories_nodes":[],"categories_segments":[],"categories_sizes":[],"default_left":[true,true,true,false,false,true,false,false,false],"id":112,"left_children":[1,3,5,-1,-1,7,-1,-1,-1],"loss_changes":[6.376349E1,4.5401253E1,2.3913708E0,0E0,0E0,1.8834496E-1,0E0,0E0,0E0],"parents":[2147483647,0,0,1,1,2,2,5,5],"right_children":[2,4,6,-1,-1,8,-1,-1,-1],"split_conditions":[-8.09613E0,2.073844E0,3.043695E0,-3.4456027E-3,1.4162567E-2,-4.5454918E1,1.5923944E-3,-1.1128425E-3,-4.013823E-3],"split_indices":[46,2,32,0,0,1,0,0,0],"split_type":[0,0,0,0,0,0,0,0,0],"sum_hessian":[9.608389E1,2.9253445E1,6.6830444E1,9.778076E0,1.9475368E1,6.3763905E1,3.0665414E0,3.001275E0,6.076263E1],"tree_param":{"num_deleted":"0","num_feature":"53","num_nodes":"9","size_leaf_vector":"0"}},{"base_weights":[-5.78804E-1],"categories":[],"categories_nodes":[],"categories_segments":[],"categories_sizes":[],"default_left":[false],"id":113,"left_children":[-1],"loss_changes":[0E0],"parents":[2147483647],"right_children":[-1],"split_conditions":[-4.051628E-3],"split_indices":[0],"split_type":[0],"sum_hessian":[8.8632324E1],"tree_param":{"num_deleted":"0","num_feature":"53","num_nodes":"1","size_leaf_vector":"0"}},{"base_weights":[4.1444772E-1,2.0459812E0,-1.6389751E-1,-3.72464E-1,1.6600833E0,6.808125E-1,-5.2405363E-1,-2.3304024E-1,1.4518152E0,-5.7011753E-1,-1.2761566E-1,-3.9058954E-1,2.2139774E-1],"categories":[],"categories_nodes":[],"categories_segments":[],"categories_sizes":[],"default_left":[true,false,true,true,false,true,true,false,false,false,true,false,false],"id":114,"left_children":[1,-1,3,5,-1,7,9,-1,-1,-1,11,-1,-1],"loss_changes":[9.2953964E1,0E0,2.9409388E1,1.1585372E1,0E0,7.3256235E0,9.621258E-1,0E0,0E0,0E0,9.889641E-1,0E0,0E0],"parents":[2147483647,0,0,2,2,3,3,5,5,6,6,10,10],"right_children":[2,-1,4,6,-1,8,10,-1,-1,-1,12,-1,-1],"split_conditions":[7.2064996E-2,1.4321868E-2,6.781555E1,1.15105E4,1.1620583E-2,9.00244E0,7.87207E0,-1.6312818E-3,1.0162707E-2,-3.990823E-3,5.06494E0,-2.7341268E-3,1.5497842E-3],"split_indices":[7,0,30,28,0,17,18,0,0,0,17,0,0],"split_type":[0,0,0,0,0,0,0,0,0,0,0,0,0],"sum_hessian":[9.580025E1,2.3743542E1,7.205671E1,6.6091E1,5.9657063E0,7.4367313E0,5.865427E1,4.0416913E0,3.3950403E0,5.1763443E1,6.890829E0,3.7939343E0,3.096895E0],"tree_param":{"num_deleted":"0","num_feature":"53","num_nodes":"13","size_leaf_vector":"0"}},{"base_weights":[2.1537256E-1,-3.4019402E-1,2.0171678E0,1.3059846E0,-5.614016E-1,3.6627898E-1,1.6663759E0,-1.8321751E-1,-5.743449E-1],"categories":[],"categories_nodes":[],"categories_segments":[],"categories_sizes":[],"default_left":[true,true,false,true,true,false,false,false,false],"id":115,"left_children":[1,3,-1,5,7,-1,-1,-1,-1],"loss_changes":[1.02646225E2,3.0248192E1,0E0,2.1537437E0,1.3744736E-1,0E0,0E0,0E0,0E0],"parents":[2147483647,0,0,1,1,3,3,4,4],"right_children":[2,4,-1,6,8,-1,-1,-1,-1],"split_conditions":[7.44015E-2,7.5906765E-1,1.41201755E-2,-1.7650532E1,8.95E1,2.563953E-3,1.1664632E-2,-1.2825226E-3,-4.0204143E-3],"split_indices":[5,2,0,1,29,0,0,0,0],"split_type":[0,0,0,0,0,0,0,0,0],"sum_hessian":[9.917086E1,7.7038994E1,2.2131866E1,7.9641037E0,6.907489E1,3.3255472E0,4.6385565E0,3.2888932E0,6.5786E1],"tree_param":{"num_deleted":"0","num_feature":"53","num_nodes":"9","size_leaf_vector":"0"}},{"base_weights":[-1.3824727E-1,9.464827E-1,-5.74428E-1,-5.031698E-1,1.9537605E0],"categories":[],"categories_nodes":[],"categories_segments":[],"categories_sizes":[],"default_left":[true,true,false,false,false],"id":116,"left_children":[1,3,-1,-1,-1],"loss_changes":[4.6334705E1,4.311714E1,0E0,0E0,0E0],"parents":[2147483647,0,0,1,1],"right_children":[2,4,-1,-1,-1],"split_conditions":[1.0805869E0,8.871732E-1,-4.0209964E-3,-3.5221886E-3,1.3676324E-2],"split_indices":[2,2,0,0,0],"split_type":[0,0,0,0,0],"sum_hessian":[9.363235E1,2.6181698E1,6.7450645E1,1.1144175E1,1.5037524E1],"tree_param":{"num_deleted":"0","num_feature":"53","num_nodes":"5","size_leaf_vector":"0"}},{"base_weights":[-7.024914E-2,1.9335719E0,-5.768183E-1],"categories":[],"categories_nodes":[],"categories_segments":[],"categories_sizes":[],"default_left":[true,false,false],"id":117,"left_children":[1,-1,-1],"loss_changes":[1.0199806E2,0E0,0E0],"parents":[2147483647,0,0],"right_children":[2,-1,-1],"split_conditions":[-3.3999968E-5,1.3535004E-2,-4.037728E-3],"split_indices":[3,0,0],"split_type":[0,0,0],"sum_hessian":[9.6285866E1,1.8292553E1,7.799332E1],"tree_param":{"num_deleted":"0","num_feature":"53","num_nodes":"3","size_leaf_vector":"0"}},{"base_weights":[1.0336471E-1,1.254875E0,-5.1181585E-1,-4.156842E-1,2.0149775E0,-5.5636233E-1,2.2688985E-1,-1.7887954E-1,-5.713722E-1],"categories":[],"categories_nodes":[],"categories_segments":[],"categories_sizes":[],"default_left":[true,true,true,false,false,true,false,false,false],"id":118,"left_children":[1,3,5,-1,-1,7,-1,-1,-1],"loss_changes":[6.947192E1,4.4971703E1,2.363762E0,0E0,0E0,1.4172363E-1,0E0,0E0,0E0],"parents":[2147483647,0,0,1,1,2,2,5,5],"right_children":[2,4,6,-1,-1,8,-1,-1,-1],"split_conditions":[-8.094725E0,2.073844E0,3.064145E0,-2.9097893E-3,1.4104842E-2,-4.5428947E1,1.588229E-3,-1.2521568E-3,-3.999606E-3],"split_indices":[46,2,32,0,0,1,0,0,0],"split_type":[0,0,0,0,0,0,0,0,0],"sum_hessian":[9.4257286E1,3.209722E1,6.2160065E1,1.0320652E1,2.1776567E1,5.9090397E1,3.0696673E0,3.247753E0,5.5842644E1],"tree_param":{"num_deleted":"0","num_feature":"53","num_nodes":"9","size_leaf_vector":"0"}},{"base_weights":[-5.7875794E-1],"categories":[],"categories_nodes":[],"categories_segments":[],"categories_sizes":[],"default_left":[false],"id":119,"left_children":[-1],"loss_changes":[0E0],"parents":[2147483647],"right_children":[-1],"split_conditions":[-4.051306E-3],"split_indices":[0],"split_type":[0],"sum_hessian":[9.098924E1],"tree_param":{"num_deleted":"0","num_feature":"53","num_nodes":"1","size_leaf_vector":"0"}},{"base_weights":[3.4730557E-1,1.7727519E0,-3.2432488E-1,2.049074E0,-3.747199E-1,-4.9969167E-1,1.6053123E0,2.0955953E-1,-5.570494E-1,-5.7200396E-1,-1.7391874E-1],"categories":[],"categories_nodes":[],"categories_segments":[],"categories_sizes":[],"default_left":[true,true,true,false,false,true,false,false,true,false,false],"id":120,"left_children":[1,3,5,-1,-1,7,-1,-1,9,-1,-1],"loss_changes":[9.839998E1,2.1024117E1,2.5541576E1,0E0,0E0,2.933466E0,0E0,0E0,1.5598488E-1,0E0,0E0],"parents":[2147483647,0,0,1,1,2,2,5,5,8,8],"right_children":[2,4,6,-1,-1,8,-1,-1,10,-1,-1],"split_conditions":[7.3886E-2,4.361306E0,6.790565E1,1.4343518E-2,-2.6230393E-3,3.039E3,1.1237186E-2,1.4669168E-3,4.051055E-1,-4.0040277E-3,-1.2174312E-3],"split_indices":[7,2,30,0,0,27,0,0,39,0,0],"split_type":[0,0,0,0,0,0,0,0,0,0,0],"sum_hessian":[9.9580124E1,3.0842363E1,6.873776E1,2.7407406E1,3.434957E0,6.436987E1,4.3678913E0,4.4190817E0,5.995079E1,5.674976E1,3.201029E0],"tree_param":{"num_deleted":"0","num_feature":"53","num_nodes":"11","size_leaf_vector":"0"}},{"base_weights":[2.2832328E-1,-5.73456E-1,1.6921552E0,2.0063202E0,-4.0688094E-1],"categories":[],"categories_nodes":[],"categories_segments":[],"categories_sizes":[],"default_left":[true,false,true,false,false],"id":121,"left_children":[1,-1,3,-1,-1],"loss_changes":[1.18694084E2,0E0,2.5181595E1,0E0,0E0],"parents":[2147483647,0,0,2,2],"right_children":[2,-1,4,-1,-1],"split_conditions":[1.02965E-2,-4.014192E-3,6.539595E1,1.4044242E-2,-2.8481667E-3],"split_indices":[4,0,30,0,0],"split_type":[0,0,0,0,0],"sum_hessian":[9.747713E1,6.3766846E1,3.371028E1,2.9398514E1,4.3117666E0],"tree_param":{"num_deleted":"0","num_feature":"53","num_nodes":"5","size_leaf_vector":"0"}},{"base_weights":[-8.166451E-2,-5.3247803E-1,1.1302806E0,-5.7322204E-1,7.413997E-2,1.945342E0,-4.7922006E-1],"categories":[],"categories_nodes":[],"categories_segments":[],"categories_sizes":[],"default_left":[true,true,true,false,false,false,false],"id":122,"left_children":[1,3,5,-1,-1,-1,-1],"loss_changes":[5.2903893E1,1.823288E0,3.636062E1,0E0,0E0,0E0,0E0],"parents":[2147483647,0,0,1,1,2,2],"right_children":[2,4,6,-1,-1,-1,-1],"split_conditions":[2.77935E-2,-3.248535E0,9.0436E-2,-4.0125544E-3,5.189798E-4,1.36173945E-2,-3.3545406E-3],"split_indices":[3,36,7,0,0,0,0],"split_type":[0,0,0,0,0,0,0],"sum_hessian":[9.26264E1,6.833045E1,2.429595E1,6.4133E1,4.1974454E0,1.5851383E1,8.444566E0],"tree_param":{"num_deleted":"0","num_feature":"53","num_nodes":"7","size_leaf_vector":"0"}},{"base_weights":[2.2602035E-2,1.9185215E0,-5.7615256E-1],"categories":[],"categories_nodes":[],"categories_segments":[],"categories_sizes":[],"default_left":[true,false,false],"id":123,"left_children":[1,-1,-1],"loss_changes":[1.16758286E2,0E0,0E0],"parents":[2147483647,0,0],"right_children":[2,-1,-1],"split_conditions":[-4.1451E-2,1.3429651E-2,-4.033068E-3],"split_indices":[4,0,0],"split_type":[0,0,0],"sum_hessian":[9.890604E1,2.2680681E1,7.622536E1],"tree_param":{"num_deleted":"0","num_feature":"53","num_nodes":"3","size_leaf_vector":"0"}},{"base_weights":[8.783449E-2,1.2712628E0,-5.439814E-1,-4.1456565E-1,1.9956422E0,-5.7283926E-1,3.716181E-2],"categories":[],"categories_nodes":[],"categories_segments":[],"categories_sizes":[],"default_left":[true,true,true,false,false,false,false],"id":124,"left_children":[1,3,5,-1,-1,-1,-1],"loss_changes":[7.6010124E1,4.48093E1,1.157301E0,0E0,0E0,0E0,0E0],"parents":[2147483647,0,0,1,1,2,2],"right_children":[2,4,6,-1,-1,-1,-1],"split_conditions":[-8.09613E0,1.43465E4,3.1116E0,-2.9019597E-3,1.3969496E-2,-4.009875E-3,2.6013266E-4],"split_indices":[46,28,42,0,0,0,0],"split_type":[0,0,0,0,0,0,0],"sum_hessian":[9.7807625E1,3.33385E1,6.446913E1,1.0276853E1,2.3061647E1,6.144645E1,3.0226786E0],"tree_param":{"num_deleted":"0","num_feature":"53","num_nodes":"7","size_leaf_vector":"0"}},{"base_weights":[-5.780975E-1],"categories":[],"categories_nodes":[],"categories_segments":[],"categories_sizes":[],"default_left":[false],"id":125,"left_children":[-1],"loss_changes":[0E0],"parents":[2147483647],"right_children":[-1],"split_conditions":[-4.0466827E-3],"split_indices":[0],"split_type":[0],"sum_hessian":[8.938091E1],"tree_param":{"num_deleted":"0","num_feature":"53","num_nodes":"1","size_leaf_vector":"0"}},{"base_weights":[3.6766002E-1,1.1502975E0,-2.7175027E-1,2.019419E0,-5.254428E-1,-5.322932E-1,1.5997609E0,4.146549E-2,-5.681029E-1],"categories":[],"categories_nodes":[],"categories_segments":[],"categories_sizes":[],"default_left":[true,true,true,false,false,true,false,false,false],"id":126,"left_children":[1,3,5,-1,-1,7,-1,-1,-1],"loss_changes":[5.2906563E1,7.109506E1,3.0528507E1,0E0,0E0,1.1441221E0,0E0,0E0,0E0],"parents":[2147483647,0,0,1,1,2,2,5,5],"right_children":[2,4,6,-1,-1,8,-1,-1,-1],"split_conditions":[5.19985E-2,1.4863E4,9.14055E1,1.41359335E-2,-3.6780995E-3,-3.6187347E1,1.1198327E-2,2.9025844E-4,-3.9767204E-3],"split_indices":[5,28,30,0,0,37,0,0,0],"split_type":[0,0,0,0,0,0,0,0,0],"sum_hessian":[1.0247363E2,4.535777E1,5.711586E1,2.9597084E1,1.5760686E1,5.1392414E1,5.723446E0,3.000543E0,4.8391872E1],"tree_param":{"num_deleted":"0","num_feature":"53","num_nodes":"9","size_leaf_vector":"0"}},{"base_weights":[2.1152483E-1,-5.7318336E-1,1.6639556E0,1.9731498E0,-4.0600526E-1],"categories":[],"categories_nodes":[],"categories_segments":[],"categories_sizes":[],"default_left":[true,false,true,false,false],"id":127,"left_children":[1,-1,3,-1,-1],"loss_changes":[1.1616071E2,0E0,2.4434898E1,0E0,0E0],"parents":[2147483647,0,0,2,2],"right_children":[2,-1,4,-1,-1],"split_conditions":[1.03825E-2,-4.0122834E-3,9.14357E1,1.3812049E-2,-2.842037E-3],"split_indices":[4,0,30,0,0],"split_type":[0,0,0,0,0],"sum_hessian":[9.824548E1,6.457053E1,3.367495E1,2.9379948E1,4.295003E0],"tree_param":{"num_deleted":"0","num_feature":"53","num_nodes":"5","size_leaf_vector":"0"}},{"base_weights":[-4.5191042E-2,-5.429422E-1,9.951154E-1,-5.7183313E-1,3.0881848E-2,1.9437484E0,-5.0639063E-1],"categories":[],"categories_nodes":[],"categories_segments":[],"categories_sizes":[],"default_left":[true,true,true,false,false,false,false],"id":128,"left_children":[1,3,5,-1,-1,-1,-1],"loss_changes":[5.0501316E1,1.1269703E0,4.696894E1,0E0,0E0,0E0,0E0],"parents":[2147483647,0,0,1,1,2,2],"right_children":[2,4,6,-1,-1,-1,-1],"split_conditions":[2.6865501E-2,2.6006501E-2,8.954E-3,-4.002832E-3,2.1617295E-4,1.3606239E-2,-3.5447346E-3],"split_indices":[3,3,4,0,0,0,0],"split_type":[0,0,0,0,0,0,0],"sum_hessian":[9.344114E1,6.384816E1,2.959298E1,6.0794228E1,3.0539317E0,1.7774319E1,1.1818661E1],"tree_param":{"num_deleted":"0","num_feature":"53","num_nodes":"7","size_leaf_vector":"0"}},{"base_weights":[-1.7771536E-2,1.9160843E0,-5.7604086E-1],"categories":[],"categories_nodes":[],"categories_segments":[],"categories_sizes":[],"default_left":[true,false,false],"id":129,"left_children":[1,-1,-1],"loss_changes":[1.1141975E2,0E0,0E0],"parents":[2147483647,0,0],"right_children":[2,-1,-1],"split_conditions":[-3.3999968E-5,1.341259E-2,-4.0322863E-3],"split_indices":[3,0,0],"split_type":[0,0,0],"sum_hessian":[9.9158775E1,2.1123207E1,7.803557E1],"tree_param":{"num_deleted":"0","num_feature":"53","num_nodes":"3","size_leaf_vector":"0"}},{"base_weights":[4.8134528E-2,1.2097489E0,-5.1285726E-1,-4.8627844E-1,1.9486524E0,-5.7143295E-1,7.514263E-2],"categories":[],"categories_nodes":[],"categories_segments":[],"categories_sizes":[],"default_left":[true,true,true,false,false,false,false],"id":130,"left_children":[1,3,5,-1,-1,-1,-1],"loss_changes":[6.3295708E1,4.150547E1,2.3459644E0,0E0,0E0,0E0,0E0],"parents":[2147483647,0,0,1,1,2,2],"right_children":[2,4,6,-1,-1,-1,-1],"split_conditions":[-8.09613E0,2.004054E0,4.549E3,-3.4039493E-3,1.3640567E-2,-4.000031E-3,5.259984E-4],"split_indices":[46,2,27,0,0,0,0],"split_type":[0,0,0,0,0,0,0],"sum_hessian":[9.322638E1,2.9607304E1,6.361908E1,9.192126E0,2.0415176E1,5.7906834E1,